{"learner":{"attributes":{"scikit_learn":"{\"_estimator_type\": \"classifier\"}"},"feature_names":["elo_difference","form_difference","goals_per_game_home","goals_per_game_away","goals_conceded_per_game_home","goals_conceded_per_game_away","home_advantage_score","h2h_home_wins","h2h_away_wins","h2h_draws","league_position_home","league_position_away","days_since_last_match_home","days_since_last_match_away","strength_ratio","goal_difference_delta","sentiment_gap","confidence_score_home","confidence_score_away","injury_concern_score_home","injury_concern_score_away","hype_level"],"feature_types":["float","float","float","float","float","float","float","int","int","int","int","int","int","int","float","int","float","float","float","float","float","float"],"gradient_booster":{"model":{"cats":{"enc":[],"feature_segments":[],"sorted_idx":[]},"gbtree_model_param":{"num_parallel_tree":"1","num_trees":"900"},"iteration_indptr":[0,3,6,9,12,15,18,21,24,27,30,33,36,39,42,45,48,51,54,57,60,63,66,69,72,75,78,81,84,87,90,93,96,99,102,105,108,111,114,117,120,123,126,129,132,135,138,141,144,147,150,153,156,159,162,165,168,171,174,177,180,183,186,189,192,195,198,201,204,207,210,213,216,219,222,225,228,231,234,237,240,243,246,249,252,255,258,261,264,267,270,273,276,279,282,285,288,291,294,297,300,303,306,309,312,315,318,321,324,327,330,333,336,339,342,345,348,351,354,357,360,363,366,369,372,375,378,381,384,387,390,393,396,399,402,405,408,411,414,417,420,423,426,429,432,435,438,441,444,447,450,453,456,459,462,465,468,471,474,477,480,483,486,489,492,495,498,501,504,507,510,513,516,519,522,525,528,531,534,537,540,543,546,549,552,555,558,561,564,567,570,573,576,579,582,585,588,591,594,597,600,603,606,609,612,615,618,621,624,627,630,633,636,639,642,645,648,651,654,657,660,663,666,669,672,675,678,681,684,687,690,693,696,699,702,705,708,711,714,717,720,723,726,729,732,735,738,741,744,747,750,753,756,759,762,765,768,771,774,777,780,783,786,789,792,795,798,801,804,807,810,813,816,819,822,825,828,831,834,837,840,843,846,849,852,855,858,861,864,867,870,873,876,879,882,885,888,891,894,897,900],"tree_info":[0,1,2,0,1,2,0,1,2,0,1,2,0,1,2,0,1,2,0,1,2,0,1,2,0,1,2,0,1,2,0,1,2,0,1,2,0,1,2,0,1,2,0,1,2,0,1,2,0,1,2,0,1,2,0,1,2,0,1,2,0,1,2,0,1,2,0,1,2,0,1,2,0,1,2,0,1,2,0,1,2,0,1,2,0,1,2,0,1,2,0,1,2,0,1,2,0,1,2,0,1,2,0,1,2,0,1,2,0,1,2,0,1,2,0,1,2,0,1,2,0,1,2,0,1,2,0,1,2,0,1,2,0,1,2,0,1,2,0,1,2,0,1,2,0,1,2,0,1,2,0,1,2,0,1,2,0,1,2,0,1,2,0,1,2,0,1,2,0,1,2,0,1,2,0,1,2,0,1,2,0,1,2,0,1,2,0,1,2,0,1,2,0,1,2,0,1,2,0,1,2,0,1,2,0,1,2,0,1,2,0,1,2,0,1,2,0,1,2,0,1,2,0,1,2,0,1,2,0,1,2,0,1,2,0,1,2,0,1,2,0,1,2,0,1,2,0,1,2,0,1,2,0,1,2,0,1,2,0,1,2,0,1,2,0,1,2,0,1,2,0,1,2,0,1,2,0,1,2,0,1,2,0,1,2,0,1,2,0,1,2,0,1,2,0,1,2,0,1,2,0,1,2,0,1,2,0,1,2,0,1,2,0,1,2,0,1,2,0,1,2,0,1,2,0,1,2,0,1,2,0,1,2,0,1,2,0,1,2,0,1,2,0,1,2,0,1,2,0,1,2,0,1,2,0,1,2,0,1,2,0,1,2,0,1,2,0,1,2,0,1,2,0,1,2,0,1,2,0,1,2,0,1,2,0,1,2,0,1,2,0,1,2,0,1,2,0,1,2,0,1,2,0,1,2,0,1,2,0,1,2,0,1,2,0,1,2,0,1,2,0,1,2,0,1,2,0,1,2,0,1,2,0,1,2,0,1,2,0,1,2,0,1,2,0,1,2,0,1,2,0,1,2,0,1,2,0,1,2,0,1,2,0,1,2,0,1,2,0,1,2,0,1,2,0,1,2,0,1,2,0,1,2,0,1,2,0,1,2,0,1,2,0,1,2,0,1,2,0,1,2,0,1,2,0,1,2,0,1,2,0,1,2,0,1,2,0,1,2,0,1,2,0,1,2,0,1,2,0,1,2,0,1,2,0,1,2,0,1,2,0,1,2,0,1,2,0,1,2,0,1,2,0,1,2,0,1,2,0,1,2,0,1,2,0,1,2,0,1,2,0,1,2,0,1,2,0,1,2,0,1,2,0,1,2,0,1,2,0,1,2,0,1,2,0,1,2,0,1,2,0,1,2,0,1,2,0,1,2,0,1,2,0,1,2,0,1,2,0,1,2,0,1,2,0,1,2,0,1,2,0,1,2,0,1,2,0,1,2,0,1,2,0,1,2,0,1,2,0,1,2,0,1,2,0,1,2,0,1,2,0,1,2,0,1,2,0,1,2,0,1,2,0,1,2,0,1,2,0,1,2,0,1,2,0,1,2,0,1,2,0,1,2,0,1,2,0,1,2,0,1,2,0,1,2,0,1,2,0,1,2,0,1,2,0,1,2,0,1,2,0,1,2,0,1,2,0,1,2,0,1,2,0,1,2,0,1,2,0,1,2,0,1,2,0,1,2,0,1,2,0,1,2,0,1,2,0,1,2,0,1,2,0,1,2,0,1,2,0,1,2,0,1,2,0,1,2,0,1,2,0,1,2,0,1,2,0,1,2,0,1,2,0,1,2,0,1,2,0,1,2,0,1,2,0,1,2,0,1,2,0,1,2,0,1,2,0,1,2,0,1,2,0,1,2,0,1,2,0,1,2,0,1,2,0,1,2,0,1,2,0,1,2,0,1,2,0,1,2,0,1,2,0,1,2,0,1,2,0,1,2,0,1,2,0,1,2,0,1,2,0,1,2,0,1,2,0,1,2,0,1,2,0,1,2,0,1,2,0,1,2,0,1,2,0,1,2,0,1,2],"trees":[{"base_weights":[-1.0763134E-7,5.224889E-1,-2.1487913E-1,9.524222E-1,4.522936E-1,-3.7895554E-1,7.375759E-2,1.0366304E-1,1.0249593E0,5.0718725E-1,4.63347E-2,3.6386663E-1,-4.177617E-1,2.976326E-1,-2.3851743E-1,3.1682055E-2,-2.3212602E-2,1.2356454E0,7.0598435E-1,3.707011E-1,7.532693E-1,-2.143836E-1,5.606449E-1,-2.3576593E-1,1.0205665E0,-2.6917744E-1,-5.430305E-1,8.9405483E-1,2.0425622E-1,3.8132746E-2,-2.6451224E-1,7.3554564E-1,6.805117E-2,1.1255593E0,3.3805358E-1,5.4708844E-1,2.4016386E-1,8.139501E-1,1.4681524E-1,-3.223324E-2,3.4936115E-2,1.322861E-1,4.7805805E-2,-5.2509266E-1,1.9270375E-1,1.1419035E0,1.0561824E-3,-3.5777354E-1,-7.983773E-2,-6.2098736E-1,-4.1729712E-1,1.9270375E-1,1.1077123E0,-3.625322E-1,2.46537E-1,-2.8423673E-1,3.1682055E-2,-2.0688813E-2,5.4664046E-2,1.0561824E-3,6.694026E-2,3.1057363E-2,-1.5129401E-2,2.9689608E-2,-1.5129401E-2,1.840882E-2,-2.9849738E-3,4.2051353E-2,-2.0688813E-2,-1.8928476E-2,3.2111317E-2,-5.4105655E-3,4.4546172E-2,3.4475178E-2,-2.6437685E-2,-4.9143825E-3,-3.1089416E-2,3.4475178E-2,-2.5045773E-2,6.418299E-2,1.3383837E-2,-2.3901327E-2,-9.812524E-3,2.9236538E-2,-7.4291914E-3,-1.1458627E-2,-3.242181E-2,-2.7225703E-2,-9.268255E-3,4.3030698E-2,-2.6437685E-2,1.0561824E-3,6.006516E-2,1.3383837E-2,-2.6254633E-2,9.734523E-3,3.9708924E-2,-2.0908713E-2,-9.167933E-3],"categories":[],"categories_nodes":[],"categories_segments":[],"categories_sizes":[],"default_left":[0,0,0,0,0,0,0,0,0,0,0,0,0,0,0,0,0,0,0,0,0,0,0,0,0,0,0,0,0,0,0,0,0,0,0,0,0,0,0,0,0,0,0,0,0,0,0,0,0,0,0,0,0,0,0,0,0,0,0,0,0,0,0,0,0,0,0,0,0,0,0,0,0,0,0,0,0,0,0,0,0,0,0,0,0,0,0,0,0,0,0,0,0,0,0,0,0,0,0],"id":0,"left_children":[1,3,5,7,9,11,13,15,17,19,21,23,25,27,29,-1,-1,31,33,35,37,39,41,43,45,47,49,51,53,-1,55,57,-1,59,61,63,65,67,69,-1,71,73,-1,75,77,79,-1,81,83,85,87,89,91,93,95,97,-1,-1,-1,-1,-1,-1,-1,-1,-1,-1,-1,-1,-1,-1,-1,-1,-1,-1,-1,-1,-1,-1,-1,-1,-1,-1,-1,-1,-1,-1,-1,-1,-1,-1,-1,-1,-1,-1,-1,-1,-1,-1,-1],"loss_changes":[1.1936304E2,8.919342E0,3.570503E1,2.5152588E0,5.95409E0,1.4002113E1,1.9217382E1,1.63806E0,1.7563362E0,7.653553E0,4.552054E0,9.844416E0,8.361481E0,8.725695E0,3.1923552E0,0E0,0E0,3.9233398E-1,2.3815594E0,3.4120274E0,2.9457283E0,2.4530382E0,1.8038785E0,1.7822728E0,1.4102745E0,3.512023E0,2.162056E0,2.9868546E0,3.4347982E0,0E0,2.1774812E0,3.1785839E0,0E0,1.8393707E0,2.1760216E0,2.745964E0,3.4853458E0,2.857769E0,2.5326355E0,0E0,1.9703172E0,2.8069289E0,0E0,2.8403473E-1,2.4809854E0,9.61195E-1,0E0,2.6934528E0,3.2195013E0,1.4692345E0,2.7784443E0,3.4414437E0,1.6179562E0,1.1748257E0,3.5508456E0,1.4232769E0,0E0,0E0,0E0,0E0,0E0,0E0,0E0,0E0,0E0,0E0,0E0,0E0,0E0,0E0,0E0,0E0,0E0,0E0,0E0,0E0,0E0,0E0,0E0,0E0,0E0,0E0,0E0,0E0,0E0,0E0,0E0,0E0,0E0,0E0,0E0,0E0,0E0,0E0,0E0,0E0,0E0,0E0,0E0],"parents":[2147483647,0,0,1,1,2,2,3,3,4,4,5,5,6,6,7,7,8,8,9,9,10,10,11,11,12,12,13,13,14,14,17,17,18,18,19,19,20,20,21,21,22,22,23,23,24,24,25,25,26,26,27,27,28,28,30,30,31,31,33,33,34,34,35,35,36,36,37,37,38,38,40,40,41,41,43,43,44,44,45,45,47,47,48,48,49,49,50,50,51,51,52,52,53,53,54,54,55,55],"right_children":[2,4,6,8,10,12,14,16,18,20,22,24,26,28,30,-1,-1,32,34,36,38,40,42,44,46,48,50,52,54,-1,56,58,-1,60,62,64,66,68,70,-1,72,74,-1,76,78,80,-1,82,84,86,88,90,92,94,96,98,-1,-1,-1,-1,-1,-1,-1,-1,-1,-1,-1,-1,-1,-1,-1,-1,-1,-1,-1,-1,-1,-1,-1,-1,-1,-1,-1,-1,-1,-1,-1,-1,-1,-1,-1,-1,-1,-1,-1,-1,-1,-1,-1],"split_conditions":[-7E0,-4E1,1.1E1,9E0,1.3E1,3E0,1.5E1,1.625E0,3E0,1.6E1,1.9E1,5E0,1.2E1,5E0,-1.35E0,3.1682055E-2,-2.3212602E-2,-6.4E1,1.625E0,4.655E-1,-9E0,7E0,-4.9195385E1,1E0,1.5556E0,7E0,7E0,1.4E1,1.289E-1,3.8132746E-2,2.7143E0,1.4E1,6.805117E-2,1.7E1,-1E0,3E0,1E0,1.6E1,1.4286E0,-3.223324E-2,1.3E0,-2E1,4.7805805E-2,6E0,1E0,1.4E1,1.0561824E-3,1.375E0,8.571E-1,1.1E0,1E0,4.83E-1,-1.9680846E2,9E0,1.9E1,7E0,3.1682055E-2,-2.0688813E-2,5.4664046E-2,1.0561824E-3,6.694026E-2,3.1057363E-2,-1.5129401E-2,2.9689608E-2,-1.5129401E-2,1.840882E-2,-2.9849738E-3,4.2051353E-2,-2.0688813E-2,-1.8928476E-2,3.2111317E-2,-5.4105655E-3,4.4546172E-2,3.4475178E-2,-2.6437685E-2,-4.9143825E-3,-3.1089416E-2,3.4475178E-2,-2.5045773E-2,6.418299E-2,1.3383837E-2,-2.3901327E-2,-9.812524E-3,2.9236538E-2,-7.4291914E-3,-1.1458627E-2,-3.242181E-2,-2.7225703E-2,-9.268255E-3,4.3030698E-2,-2.6437685E-2,1.0561824E-3,6.006516E-2,1.3383837E-2,-2.6254633E-2,9.734523E-3,3.9708924E-2,-2.0908713E-2,-9.167933E-3],"split_indices":[15,15,10,10,11,11,11,2,11,10,10,10,11,11,1,0,0,15,3,6,15,12,0,8,5,10,10,10,6,0,4,10,0,10,1,8,9,13,3,0,2,15,0,12,9,12,0,5,5,2,7,6,0,11,10,12,0,0,0,0,0,0,0,0,0,0,0,0,0,0,0,0,0,0,0,0,0,0,0,0,0,0,0,0,0,0,0,0,0,0,0,0,0,0,0,0,0,0,0],"split_type":[0,0,0,0,0,0,0,0,0,0,0,0,0,0,0,0,0,0,0,0,0,0,0,0,0,0,0,0,0,0,0,0,0,0,0,0,0,0,0,0,0,0,0,0,0,0,0,0,0,0,0,0,0,0,0,0,0,0,0,0,0,0,0,0,0,0,0,0,0,0,0,0,0,0,0,0,0,0,0,0,0,0,0,0,0,0,0,0,0,0,0,0,0,0,0,0,0,0,0],"sum_hessian":[1.06116E3,3.0881924E2,7.523408E2,4.158015E1,2.672391E2,4.794711E2,2.7286975E2,3.4650126E0,3.811514E1,2.3518773E2,3.2051365E1,2.3388834E1,4.5608228E2,1.5895744E2,1.13912285E2,1.7325063E0,1.7325063E0,2.1223202E1,1.6891935E1,1.5289368E2,8.2294044E1,2.1656328E1,1.0395038E1,1.2560671E1,1.0828164E1,2.1006639E2,2.4601588E2,2.0356949E1,1.386005E2,2.1656327E0,1.1174666E2,5.6306453E0,1.5592556E1,6.930025E0,9.961911E0,6.3669605E1,8.9224075E1,7.449777E1,7.796278E0,7.3631516E0,1.4293177E1,5.6306453E0,4.7643924E0,7.3631516E0,5.197519E0,9.528785E0,1.2993797E0,1.4249864E2,6.756774E1,1.4942867E2,9.658723E1,5.197519E0,1.515943E1,9.095658E0,1.2950484E2,1.10014145E2,1.7325063E0,1.2993797E0,4.3312654E0,1.2993797E0,5.6306453E0,6.930025E0,3.031886E0,6.063772E1,3.031886E0,6.2370224E1,2.6853848E1,7.319839E1,1.2993797E0,3.898139E0,3.898139E0,1.2993797E1,1.2993797E0,3.031886E0,2.5987594E0,1.7325063E0,5.6306453E0,3.031886E0,2.1656327E0,7.796278E0,1.7325063E0,8.056154E1,6.19371E1,5.6306453E0,6.19371E1,1.0395038E1,1.3903363E2,6.150397E1,3.5083252E1,2.5987594E0,2.5987594E0,1.2993797E0,1.386005E1,1.7325063E0,7.3631516E0,1.1954293E2,9.961911E0,4.5911415E1,6.410273E1],"tree_param":{"num_deleted":"0","num_feature":"22","num_nodes":"99","size_leaf_vector":"1"}},{"base_weights":[-6.812864E-7,-1.4732772E-1,5.2010436E-2,2.2395106E-1,-2.6603106E-1,1.6164156E-2,2.5116366E-1,5.3142214E-1,6.2310897E-2,-2.086849E-1,-5.523205E-1,-2.6282203E-1,3.415213E-2,5.09678E-1,-9.424497E-2,8.7574115E-3,9.233013E-1,-2.8653745E-2,1.8404035E-1,2.945298E-2,-2.2235362E-1,-1.4087849E-2,-6.119286E-1,-3.070108E-1,2.8623024E-2,2.8511696E-2,8.7091666E-1,-6.95831E-2,6.751584E-1,3.714843E-2,-5.2004814E-1,3.1837404E-1,-2.535723E-2,1.0648619E0,-5.650834E-4,6.21819E-1,1.1059537E-2,2.945298E-2,-2.3636436E-1,2.8623024E-2,-2.2089776E-2,5.3251986E-3,-3.2370083E-2,-3.5422555E-1,2.8623024E-2,-3.9892766E-1,4.207475E-2,5.876651E-2,5.3251986E-3,3.5072353E-1,-4.6066985E-1,5.8648086E-1,6.668072E-2,7.0092E-1,-8.146964E-2,-3.0215213E-2,5.3251986E-3,4.66339E-2,-5.9272046E-3,7.254748E-2,2.0869255E-2,-2.0342281E-2,4.3071017E-2,-1.6951649E-2,1.9576645E-2,-9.141094E-3,-2.460896E-2,-9.304698E-3,-2.5633192E-2,3.1502848E-3,-3.077676E-2,2.841429E-3,-1.46141965E-2,4.1521013E-2,-1.3030811E-2,-2.8653745E-2,5.3251986E-3,1.3691643E-2,4.06236E-2,-1.7972626E-2,5.278641E-2,3.5723054E-3,-2.0510575E-2],"categories":[],"categories_nodes":[],"categories_segments":[],"categories_sizes":[],"default_left":[0,0,0,0,0,0,0,0,0,0,0,0,0,0,0,0,0,0,0,0,0,0,0,0,0,0,0,0,0,0,0,0,0,0,0,0,0,0,0,0,0,0,0,0,0,0,0,0,0,0,0,0,0,0,0,0,0,0,0,0,0,0,0,0,0,0,0,0,0,0,0,0,0,0,0,0,0,0,0,0,0,0,0],"id":1,"left_children":[1,3,5,7,9,11,13,15,17,19,21,23,25,27,29,31,33,-1,35,-1,37,39,41,43,-1,45,47,49,51,53,55,57,-1,59,-1,61,63,-1,65,-1,-1,-1,-1,67,-1,69,71,-1,-1,73,75,77,-1,79,81,-1,-1,-1,-1,-1,-1,-1,-1,-1,-1,-1,-1,-1,-1,-1,-1,-1,-1,-1,-1,-1,-1,-1,-1,-1,-1,-1,-1],"loss_changes":[7.187564E0,1.0845863E1,4.9450436E0,2.9406333E0,2.9368992E0,2.9627E0,9.484463E0,4.1874943E0,3.226364E0,1.8373761E0,9.672537E-1,1.495868E0,2.5890114E0,5.8557205E0,2.5974371E0,1.7247481E0,1.5596037E0,0E0,2.6147733E0,0E0,1.8965821E0,1.2705264E0,7.66242E-1,1.6403253E0,0E0,3.2119498E0,7.2982025E-1,2.5238922E0,1.9754562E0,2.90321E0,6.415267E-1,1.9170642E0,0E0,1.9364662E0,0E0,2.7626467E0,3.5736759E0,0E0,2.0011377E0,0E0,0E0,0E0,0E0,7.9627943E-1,0E0,1.7443478E0,2.6562634E0,0E0,0E0,2.4142988E0,5.6320214E-1,2.8444376E0,0E0,2.4805317E0,1.6159881E0,0E0,0E0,0E0,0E0,0E0,0E0,0E0,0E0,0E0,0E0,0E0,0E0,0E0,0E0,0E0,0E0,0E0,0E0,0E0,0E0,0E0,0E0,0E0,0E0,0E0,0E0,0E0,0E0],"parents":[2147483647,0,0,1,1,2,2,3,3,4,4,5,5,6,6,7,7,8,8,9,9,10,10,11,11,12,12,13,13,14,14,15,15,16,16,18,18,20,20,21,21,22,22,23,23,25,25,26,26,27,27,28,28,29,29,30,30,31,31,33,33,35,35,36,36,38,38,43,43,45,45,46,46,49,49,50,50,51,51,53,53,54,54],"right_children":[2,4,6,8,10,12,14,16,18,20,22,24,26,28,30,32,34,-1,36,-1,38,40,42,44,-1,46,48,50,52,54,56,58,-1,60,-1,62,64,-1,66,-1,-1,-1,-1,68,-1,70,72,-1,-1,74,76,78,-1,80,82,-1,-1,-1,-1,-1,-1,-1,-1,-1,-1,-1,-1,-1,-1,-1,-1,-1,-1,-1,-1,-1,-1,-1,-1,-1,-1,-1,-1],"split_conditions":[6E0,6E0,6.108E-1,8.333E-1,1.1E1,-4E1,1.625E0,3E0,1.4286E0,3E0,7.143E-1,5.544E-1,3.3E0,-3.9657356E1,1E0,1E0,2E0,-2.8653745E-2,-5E0,2.945298E-2,5.182E-1,1.4E1,-9.5E-1,1.6E1,2.8623024E-2,6E-1,1.1E0,7E0,2.1E0,6.355E-1,1.7143E0,7E0,-2.535723E-2,1.1111E0,-5.650834E-4,5E0,1E0,2.945298E-2,1.8E1,2.8623024E-2,-2.2089776E-2,5.3251986E-3,-3.2370083E-2,-4.9E1,2.8623024E-2,1.2E1,2E1,5.876651E-2,5.3251986E-3,1E0,2E0,1.2E1,6.668072E-2,-3E0,1.4E1,-3.0215213E-2,5.3251986E-3,4.66339E-2,-5.9272046E-3,7.254748E-2,2.0869255E-2,-2.0342281E-2,4.3071017E-2,-1.6951649E-2,1.9576645E-2,-9.141094E-3,-2.460896E-2,-9.304698E-3,-2.5633192E-2,3.1502848E-3,-3.077676E-2,2.841429E-3,-1.46141965E-2,4.1521013E-2,-1.3030811E-2,-2.8653745E-2,5.3251986E-3,1.3691643E-2,4.06236E-2,-1.7972626E-2,5.278641E-2,3.5723054E-3,-2.0510575E-2],"split_indices":[10,11,6,4,12,15,2,10,2,13,3,6,4,0,9,7,7,0,15,0,17,11,1,12,0,5,2,13,3,6,4,12,0,5,0,13,9,0,11,0,0,0,0,15,0,10,11,0,0,8,8,11,0,15,11,0,0,0,0,0,0,0,0,0,0,0,0,0,0,0,0,0,0,0,0,0,0,0,0,0,0,0,0],"split_type":[0,0,0,0,0,0,0,0,0,0,0,0,0,0,0,0,0,0,0,0,0,0,0,0,0,0,0,0,0,0,0,0,0,0,0,0,0,0,0,0,0,0,0,0,0,0,0,0,0,0,0,0,0,0,0,0,0,0,0,0,0,0,0,0,0,0,0,0,0,0,0,0,0,0,0,0,0,0,0,0,0,0,0],"sum_hessian":[9.3600055E2,2.4374219E2,6.9225836E2,5.883432E1,1.8490787E2,5.875791E2,1.04679245E2,1.9484093E1,3.9350227E1,1.554907E2,2.941716E1,3.4765736E1,5.5281335E2,5.95984E1,4.508084E1,8.786943E0,1.0697149E1,5.7306156E0,3.361961E1,1.9102051E0,1.5358049E2,3.0563283E0,2.6360832E1,3.361961E1,1.1461232E0,5.501391E2,2.6742873E0,1.3371436E1,4.6226967E1,3.5147774E1,9.933067E0,5.7306156E0,3.0563283E0,9.168985E0,1.5281641E0,8.786943E0,2.4832668E1,1.9102051E0,1.5167029E2,1.1461232E0,1.9102051E0,1.1461232E0,2.5214708E1,3.2473488E1,1.1461232E0,1.6045723E1,5.340934E2,1.5281641E0,1.1461232E0,6.4946976E0,6.8767385E0,4.2406555E1,3.8204103E0,4.5844927E0,3.0563282E1,8.786943E0,1.1461232E0,1.9102051E0,3.8204103E0,4.9665337E0,4.202451E0,1.5281641E0,7.2587795E0,1.2989395E1,1.1843272E1,1.2683762E2,2.4832668E1,1.6809805E1,1.5663683E1,5.3485746E0,1.0697149E1,5.12317E2,2.1776339E1,3.4383693E0,3.0563283E0,5.7306156E0,1.1461232E0,1.872001E1,2.3686544E1,1.1461232E0,3.4383693E0,2.1394299E1,9.168985E0],"tree_param":{"num_deleted":"0","num_feature":"22","num_nodes":"83","size_leaf_vector":"1"}},{"base_weights":[5.5122473E-7,-3.9266685E-1,2.4590997E-1,-6.4572126E-1,-3.1633282E-1,5.322853E-1,9.705909E-3,-6.616782E-1,1.4651202E-2,1.965656E-2,-3.8514432E-1,5.3168748E-2,6.2926114E-1,-2.1810926E-1,2.8399277E-1,-6.9064677E-1,-1.0705401E-1,3.591358E-1,-9.8796E-2,-4.542739E-1,-2.4126351E-1,-2.802128E-1,2.7709153E-1,4.2611328E-1,6.976341E-1,-1.4621337E-1,-6.512471E-1,1.6232754E-1,5.6165445E-1,-7.1145564E-1,-3.0703318E-1,-4.4768563E-1,2.1941958E-2,8.5786414E-1,-8.606775E-3,-3.7193485E-2,1.2736159E-2,-4.803144E-1,4.506056E-2,6.07042E-1,-3.0651093E-1,3.6751324E-1,-3.9052215E-1,-1.4628449E-1,4.859955E-1,8.442573E-1,3.0521926E-1,7.691865E-1,3.410709E-1,4.9673427E-2,-2.4490419E-1,-5.6172367E-3,-6.7396706E-1,2.7552468E-1,-1.5470654E-1,8.591599E-1,3.8988397E-1,-3.5989594E-2,-5.6172367E-3,-3.3689484E-2,1.2648425E-2,-5.6172367E-3,-2.8804818E-2,4.7851242E-2,1.4651202E-2,1.3001134E-2,-3.0895267E-2,-1.0666507E-2,1.0656546E-2,-2.1837546E-2,-3.634183E-2,3.4141734E-2,-1.7224733E-2,-5.6172367E-3,4.0264484E-2,2.9335013E-2,-1.7905563E-2,-5.6172367E-3,3.4919642E-2,-3.1180948E-2,1.4795999E-2,1.6758721E-2,-3.614097E-2,4.875398E-2,1.5251289E-2,4.754864E-2,-5.6172367E-3,2.52637E-2,-8.00496E-3,-2.8804818E-2,3.9409827E-2,-8.482783E-3,2.5564585E-2,1.653014E-2,-4.367415E-3,-2.7453552E-3,-2.1342624E-2,-3.6208786E-2,-1.1079078E-2,2.1878868E-2,1.7267962E-3,-1.4575525E-2,1.5683642E-2,5.3730067E-2,2.3735581E-2,1.3204661E-2,3.9680433E-2],"categories":[],"categories_nodes":[],"categories_segments":[],"categories_sizes":[],"default_left":[0,0,0,0,0,0,0,0,0,0,0,0,0,0,0,0,0,0,0,0,0,0,0,0,0,0,0,0,0,0,0,0,0,0,0,0,0,0,0,0,0,0,0,0,0,0,0,0,0,0,0,0,0,0,0,0,0,0,0,0,0,0,0,0,0,0,0,0,0,0,0,0,0,0,0,0,0,0,0,0,0,0,0,0,0,0,0,0,0,0,0,0,0,0,0,0,0,0,0,0,0,0,0,0,0,0,0],"id":2,"left_children":[1,3,5,7,9,11,13,15,-1,17,19,21,23,25,27,29,31,33,35,37,39,41,43,45,47,49,51,53,55,57,59,61,-1,63,65,-1,67,69,71,73,75,77,79,81,83,85,87,89,91,93,95,-1,97,99,101,103,105,-1,-1,-1,-1,-1,-1,-1,-1,-1,-1,-1,-1,-1,-1,-1,-1,-1,-1,-1,-1,-1,-1,-1,-1,-1,-1,-1,-1,-1,-1,-1,-1,-1,-1,-1,-1,-1,-1,-1,-1,-1,-1,-1,-1,-1,-1,-1,-1,-1,-1],"loss_changes":[1.1586885E2,8.721817E0,4.9906414E1,1.7836189E0,8.260578E0,1.5461632E1,2.5392338E1,1.6076012E0,0E0,2.5138159E0,2.837864E0,4.3500195E0,3.5538788E0,6.8183975E0,6.136874E0,5.740814E-1,1.3825519E0,2.9707937E0,3.3530831E0,2.6096153E0,5.6271496E0,1.8220536E0,3.143535E0,3.401641E0,4.990143E0,3.718069E0,3.0770874E-1,4.693531E0,2.5147114E0,3.8567352E-1,1.580936E0,1.2572801E-1,0E0,1.0421991E-1,1.8449397E0,0E0,1.8850216E0,1.7149849E0,2.913322E0,1.1396332E0,4.4479456E0,7.030473E-1,3.4740593E0,3.6415317E0,1.7818651E0,1.7063847E0,5.4539742E0,4.8187866E0,3.234301E0,2.5330355E0,4.3890824E0,0E0,5.175123E-1,3.7284522E0,2.3173454E0,1.1116571E0,1.67876E0,0E0,0E0,0E0,0E0,0E0,0E0,0E0,0E0,0E0,0E0,0E0,0E0,0E0,0E0,0E0,0E0,0E0,0E0,0E0,0E0,0E0,0E0,0E0,0E0,0E0,0E0,0E0,0E0,0E0,0E0,0E0,0E0,0E0,0E0,0E0,0E0,0E0,0E0,0E0,0E0,0E0,0E0,0E0,0E0,0E0,0E0,0E0,0E0,0E0,0E0],"parents":[2147483647,0,0,1,1,2,2,3,3,4,4,5,5,6,6,7,7,9,9,10,10,11,11,12,12,13,13,14,14,15,15,16,16,17,17,18,18,19,19,20,20,21,21,22,22,23,23,24,24,25,25,26,26,27,27,28,28,29,29,30,30,31,31,33,33,34,34,36,36,37,37,38,38,39,39,40,40,41,41,42,42,43,43,44,44,45,45,46,46,47,47,48,48,49,49,50,50,52,52,53,53,54,54,55,55,56,56],"right_children":[2,4,6,8,10,12,14,16,-1,18,20,22,24,26,28,30,32,34,36,38,40,42,44,46,48,50,52,54,56,58,60,62,-1,64,66,-1,68,70,72,74,76,78,80,82,84,86,88,90,92,94,96,-1,98,100,102,104,106,-1,-1,-1,-1,-1,-1,-1,-1,-1,-1,-1,-1,-1,-1,-1,-1,-1,-1,-1,-1,-1,-1,-1,-1,-1,-1,-1,-1,-1,-1,-1,-1,-1,-1,-1,-1,-1,-1,-1,-1,-1,-1,-1,-1,-1,-1,-1,-1,-1,-1],"split_conditions":[-3E0,3E0,7E0,9.043E-1,1E1,6E0,1.5E1,2E0,1.4651202E-2,4.825E-1,1.1E1,1.0046473E0,1E1,1.7E1,1.9E1,2.4444E0,2.125E0,7E0,-2E1,-7.053858E0,1.2E1,7E-1,8E-1,2E0,6E0,1.1429E0,6E-1,1.5E1,1.1E1,2.2E1,1.1E0,-9.297618E1,2.1941958E-2,1.625E0,1E0,-3.7193485E-2,-4.6666667E-1,-7E0,1.4286E0,1.2222E0,8.25E-2,-9.4279E1,1.2222E0,3E0,7.247E-1,5.7E1,6.967123E1,5.182E-1,3E0,1.2222E0,2E0,-5.6172367E-3,3E0,1E1,7.5E-1,1.9E1,1E0,-3.5989594E-2,-5.6172367E-3,-3.3689484E-2,1.2648425E-2,-5.6172367E-3,-2.8804818E-2,4.7851242E-2,1.4651202E-2,1.3001134E-2,-3.0895267E-2,-1.0666507E-2,1.0656546E-2,-2.1837546E-2,-3.634183E-2,3.4141734E-2,-1.7224733E-2,-5.6172367E-3,4.0264484E-2,2.9335013E-2,-1.7905563E-2,-5.6172367E-3,3.4919642E-2,-3.1180948E-2,1.4795999E-2,1.6758721E-2,-3.614097E-2,4.875398E-2,1.5251289E-2,4.754864E-2,-5.6172367E-3,2.52637E-2,-8.00496E-3,-2.8804818E-2,3.9409827E-2,-8.482783E-3,2.5564585E-2,1.653014E-2,-4.367415E-3,-2.7453552E-3,-2.1342624E-2,-3.6208786E-2,-1.1079078E-2,2.1878868E-2,1.7267962E-3,-1.4575525E-2,1.5683642E-2,5.3730067E-2,2.3735581E-2,1.3204661E-2,3.9680433E-2],"split_indices":[15,11,10,6,10,11,11,9,0,6,11,14,11,10,11,4,3,13,15,0,10,5,4,10,10,4,3,10,10,12,2,0,0,5,7,0,1,15,4,4,6,0,4,10,6,15,0,17,15,5,15,0,15,15,1,15,8,0,0,0,0,0,0,0,0,0,0,0,0,0,0,0,0,0,0,0,0,0,0,0,0,0,0,0,0,0,0,0,0,0,0,0,0,0,0,0,0,0,0,0,0,0,0,0,0,0,0],"split_type":[0,0,0,0,0,0,0,0,0,0,0,0,0,0,0,0,0,0,0,0,0,0,0,0,0,0,0,0,0,0,0,0,0,0,0,0,0,0,0,0,0,0,0,0,0,0,0,0,0,0,0,0,0,0,0,0,0,0,0,0,0,0,0,0,0,0,0,0,0,0,0,0,0,0,0,0,0,0,0,0,0,0,0,0,0,0,0,0,0,0,0,0,0,0,0,0,0,0,0,0,0,0,0,0,0,0,0],"sum_hessian":[1.1979598E3,4.610923E2,7.368675E2,1.0512708E2,3.559652E2,3.3249496E2,4.0437256E2,1.03660194E2,1.4668896E0,6.0631435E1,2.9533377E2,5.6230766E1,2.762642E2,2.2101137E2,1.8336119E2,9.82816E1,5.378595E0,1.5157859E1,4.5473576E1,1.9803009E2,9.730367E1,2.2492306E1,3.373846E1,7.1388626E1,2.0487558E2,1.9069565E2,3.0315718E1,1.2859732E2,5.4763878E1,9.241404E1,5.8675585E0,3.4227424E0,1.9558527E0,5.8675585E0,9.2903E0,5.8675585E0,3.9606018E1,1.8825082E2,9.7792635E0,6.3565216E0,9.094715E1,2.9337792E0,1.9558527E1,1.1246153E1,2.2492306E1,1.4668896E1,5.671973E1,1.6967023E2,3.520535E1,6.405418E1,1.26641464E2,1.4668896E0,2.8848827E1,9.485886E1,3.373846E1,1.85806E1,3.6183277E1,9.094715E1,1.4668896E0,3.4227424E0,2.4448159E0,1.4668896E0,1.9558527E0,4.4006686E0,1.4668896E0,6.8454847E0,2.4448159E0,1.85806E1,2.1025417E1,1.6233578E2,2.5915049E1,3.4227424E0,6.3565216E0,1.4668896E0,4.8896317E0,4.4006686E0,8.6546486E1,1.4668896E0,1.4668896E0,1.4668896E1,4.8896317E0,6.3565216E0,4.8896317E0,4.8896317E0,1.7602674E1,1.3202006E1,1.4668896E0,3.9606018E1,1.7113712E1,1.9558527E0,1.6771437E2,8.801337E0,2.6404013E1,2.0536453E1,4.3517723E1,6.2587288E1,6.405418E1,2.5426086E1,3.4227424E0,5.6230766E1,3.862809E1,2.6404013E1,7.334448E0,1.075719E1,7.823411E0,2.8848827E1,7.334448E0],"tree_param":{"num_deleted":"0","num_feature":"22","num_nodes":"107","size_leaf_vector":"1"}},{"base_weights":[2.92062E-5,4.9636897E-1,-2.0815766E-1,1.6271196E-1,5.742157E-1,-3.6865222E-1,7.0577145E-2,2.5389448E-2,6.9976884E-1,8.8530153E-1,4.3326813E-1,3.4996924E-1,-4.0692747E-1,2.8400075E-1,-2.314384E-1,-1.659552E-1,4.4028786E-1,4.9110338E-2,1.4798062E-1,1.0466723E0,6.342594E-1,2.2549346E-1,5.96533E-1,-2.317648E-1,9.7217256E-1,-2.6113436E-1,-5.3081715E-1,8.499048E-1,1.9428203E-1,-2.5718623E-1,3.720392E-2,2.6280403E-1,-3.21018E-1,-3.5042745E-1,6.913027E-1,-3.093283E-1,4.450674E-2,1.1049818E0,1.747331E-1,8.538563E-1,2.606098E-1,3.8695297E-1,-5.0493833E-2,7.94827E-1,4.0005445E-1,-5.164429E-1,1.8333267E-1,1.0874251E0,7.314513E-4,-3.4756085E-1,-7.80515E-2,-6.079588E-1,-4.0728655E-1,1.8601818E-1,1.048187E0,-3.5789436E-1,2.3501322E-1,3.0729694E-2,-2.7666795E-1,-1.1384348E-2,3.522236E-2,1.1139142E-2,-2.143801E-2,-2.5279E-2,7.584911E-4,4.7125023E-2,-2.9813165E-3,-2.355539E-2,9.119158E-4,3.0264108E-2,5.702421E-2,-2.12138E-2,3.0821292E-2,5.035311E-2,4.4348375E-3,5.5412192E-2,-2.0765706E-3,5.2718557E-3,3.4080308E-2,9.878059E-3,-2.145308E-2,5.450792E-2,2.0469336E-2,1.1092355E-2,4.4781897E-2,-4.8874174E-3,-3.061456E-2,3.2982215E-2,-2.4742072E-2,6.178516E-2,6.15703E-4,-2.3347666E-2,-9.408654E-3,2.8282508E-2,-7.2731297E-3,-1.1007281E-2,-3.1771906E-2,-2.6672212E-2,-8.96548E-3,4.1471727E-2,-2.6150016E-2,7.3728024E-4,5.680294E-2,1.2727737E-2,-2.5907625E-2,-1.5230171E-2,1.40988575E-2,-2.0460982E-2,-8.865401E-3],"categories":[],"categories_nodes":[],"categories_segments":[],"categories_sizes":[],"default_left":[0,0,0,0,0,0,0,0,0,0,0,0,0,0,0,0,0,0,0,0,0,0,0,0,0,0,0,0,0,0,0,0,0,0,0,0,0,0,0,0,0,0,0,0,0,0,0,0,0,0,0,0,0,0,0,0,0,0,0,0,0,0,0,0,0,0,0,0,0,0,0,0,0,0,0,0,0,0,0,0,0,0,0,0,0,0,0,0,0,0,0,0,0,0,0,0,0,0,0,0,0,0,0,0,0,0,0,0,0],"id":3,"left_children":[1,3,5,7,9,11,13,15,17,19,21,23,25,27,29,31,33,-1,35,37,39,41,43,45,47,49,51,53,55,57,-1,59,61,63,65,67,-1,69,71,73,75,77,79,81,83,85,87,89,-1,91,93,95,97,99,101,103,105,-1,107,-1,-1,-1,-1,-1,-1,-1,-1,-1,-1,-1,-1,-1,-1,-1,-1,-1,-1,-1,-1,-1,-1,-1,-1,-1,-1,-1,-1,-1,-1,-1,-1,-1,-1,-1,-1,-1,-1,-1,-1,-1,-1,-1,-1,-1,-1,-1,-1,-1,-1],"loss_changes":[1.0981807E2,8.063705E0,3.3520603E1,4.466676E0,1.0764153E1,1.3215797E1,1.7754356E1,3.9997745E0,1.7784386E0,2.5088158E0,5.8672333E0,9.119689E0,8.0206375E0,8.021621E0,3.0592628E0,2.3831882E0,3.3951416E0,0E0,2.09336E0,2.152504E0,2.5001307E0,3.5602903E0,3.5183716E0,1.6907922E0,1.3156891E0,3.2876472E0,2.0703201E0,2.6706467E0,3.2435145E0,2.071992E0,0E0,2.268868E0,1.6096897E0,2.624296E-1,2.394062E0,2.2355962E-1,0E0,7.350159E-2,1.3409106E0,2.3091383E0,3.560294E0,4.0960546E0,2.9218884E0,5.016981E0,4.3472757E0,2.7220106E-1,2.339766E0,1.6994724E0,0E0,2.614729E0,3.05331E0,1.434185E0,2.6808033E0,3.2723489E0,1.4858818E0,1.1179775E0,3.4166274E0,0E0,1.3791828E0,0E0,0E0,0E0,0E0,0E0,0E0,0E0,0E0,0E0,0E0,0E0,0E0,0E0,0E0,0E0,0E0,0E0,0E0,0E0,0E0,0E0,0E0,0E0,0E0,0E0,0E0,0E0,0E0,0E0,0E0,0E0,0E0,0E0,0E0,0E0,0E0,0E0,0E0,0E0,0E0,0E0,0E0,0E0,0E0,0E0,0E0,0E0,0E0,0E0,0E0],"parents":[2147483647,0,0,1,1,2,2,3,3,4,4,5,5,6,6,7,7,8,8,9,9,10,10,11,11,12,12,13,13,14,14,15,15,16,16,18,18,19,19,20,20,21,21,22,22,23,23,24,24,25,25,26,26,27,27,28,28,29,29,31,31,32,32,33,33,34,34,35,35,37,37,38,38,39,39,40,40,41,41,42,42,43,43,44,44,45,45,46,46,47,47,49,49,50,50,51,51,52,52,53,53,54,54,55,55,56,56,58,58],"right_children":[2,4,6,8,10,12,14,16,18,20,22,24,26,28,30,32,34,-1,36,38,40,42,44,46,48,50,52,54,56,58,-1,60,62,64,66,68,-1,70,72,74,76,78,80,82,84,86,88,90,-1,92,94,96,98,100,102,104,106,-1,108,-1,-1,-1,-1,-1,-1,-1,-1,-1,-1,-1,-1,-1,-1,-1,-1,-1,-1,-1,-1,-1,-1,-1,-1,-1,-1,-1,-1,-1,-1,-1,-1,-1,-1,-1,-1,-1,-1,-1,-1,-1,-1,-1,-1,-1,-1,-1,-1,-1,-1],"split_conditions":[-7E0,1E1,1.1E1,9.8122495E-1,4E0,3E0,1.5E1,6.32E-1,6.655E-1,-1E0,1E0,5E0,1.2E1,5E0,2.7143E0,1.1111E0,2.1E0,4.9110338E-2,1.2222E0,-4.5876102E1,3E0,1.1E1,7E0,1E0,7.995E-1,7E0,7E0,1.4E1,1.289E-1,-1.35E0,3.720392E-2,1E0,3.627E-1,-1.6E1,-6.9043785E1,8.144E-1,4.450674E-2,-2.725185E2,-3.9657356E1,5.495E-1,1E0,1.6E1,2.995E-1,-1.9E1,-6.3425278E1,6E0,1E0,1.4E1,7.314513E-4,1.375E0,8.571E-1,1.1E0,1E0,4.83E-1,-1.9680846E2,9E0,1E0,3.0729694E-2,7E0,-1.1384348E-2,3.522236E-2,1.1139142E-2,-2.143801E-2,-2.5279E-2,7.584911E-4,4.7125023E-2,-2.9813165E-3,-2.355539E-2,9.119158E-4,3.0264108E-2,5.702421E-2,-2.12138E-2,3.0821292E-2,5.035311E-2,4.4348375E-3,5.5412192E-2,-2.0765706E-3,5.2718557E-3,3.4080308E-2,9.878059E-3,-2.145308E-2,5.450792E-2,2.0469336E-2,1.1092355E-2,4.4781897E-2,-4.8874174E-3,-3.061456E-2,3.2982215E-2,-2.4742072E-2,6.178516E-2,6.15703E-4,-2.3347666E-2,-9.408654E-3,2.8282508E-2,-7.2731297E-3,-1.1007281E-2,-3.1771906E-2,-2.6672212E-2,-8.96548E-3,4.1471727E-2,-2.6150016E-2,7.3728024E-4,5.680294E-2,1.2727737E-2,-2.5907625E-2,-1.5230171E-2,1.40988575E-2,-2.0460982E-2,-8.865401E-3],"split_indices":[15,10,10,14,11,11,11,6,6,1,8,10,11,11,4,4,3,0,4,0,11,11,13,8,6,10,10,10,6,1,0,5,6,15,0,6,0,0,0,6,8,10,6,15,0,12,9,12,0,5,5,2,7,6,0,11,4,0,12,0,0,0,0,0,0,0,0,0,0,0,0,0,0,0,0,0,0,0,0,0,0,0,0,0,0,0,0,0,0,0,0,0,0,0,0,0,0,0,0,0,0,0,0,0,0,0,0,0,0],"split_type":[0,0,0,0,0,0,0,0,0,0,0,0,0,0,0,0,0,0,0,0,0,0,0,0,0,0,0,0,0,0,0,0,0,0,0,0,0,0,0,0,0,0,0,0,0,0,0,0,0,0,0,0,0,0,0,0,0,0,0,0,0,0,0,0,0,0,0,0,0,0,0,0,0,0,0,0,0,0,0,0,0,0,0,0,0,0,0,0,0,0,0,0,0,0,0,0,0,0,0,0,0,0,0,0,0,0,0,0,0],"sum_hessian":[1.0607751E3,3.130489E2,7.477263E2,5.9806007E1,2.5324289E2,4.7430215E2,2.7342416E2,4.8461853E1,1.1344156E1,7.731645E1,1.7592644E2,2.3573019E1,4.5072913E2,1.6024463E2,1.1317951E2,3.357678E1,1.4885075E1,6.9874983E0,4.356658E0,4.5134502E1,3.2181946E1,7.845894E1,9.746751E1,1.2507005E1,1.1066014E1,2.0848836E2,2.4224077E2,2.0769196E1,1.3947543E2,1.10986496E2,2.1930227E0,8.733429E0,2.484335E1,3.491271E0,1.1393804E1,3.0564826E0,1.3001757E0,4.2054886E1,3.079614E0,1.945998E1,1.2721968E1,4.9246452E1,2.9212482E1,4.6993965E1,5.047354E1,7.274162E0,5.232843E0,9.7561035E0,1.3099113E0,1.4101985E2,6.746851E1,1.467055E2,9.553526E1,5.2222524E0,1.5546944E1,9.046665E0,1.3042877E2,1.7582877E0,1.092282E2,4.367413E0,4.366016E0,3.9316456E0,2.0911703E1,2.182269E0,1.3090019E0,8.346615E0,3.0471885E0,1.7526661E0,1.3038163E0,3.9869714E0,3.8067917E1,1.3237796E0,1.7558343E0,1.5950173E1,3.5098062E0,2.6420193E0,1.0079948E1,2.5879063E1,2.336739E1,1.7937284E1,1.1275198E1,2.5571936E1,2.142203E1,3.8188828E1,1.2284712E1,1.7312708E0,5.542891E0,3.0899544E0,2.1428885E0,8.4423685E0,1.3137348E0,7.95224E1,6.1497448E1,5.69514E0,6.1773373E1,1.0303539E1,1.3640196E2,6.0639E1,3.4896263E1,2.648747E0,2.5735054E0,1.3098531E0,1.4237091E1,1.754228E0,7.292437E0,1.0003417E1,1.2042536E2,4.5461487E1,6.3766716E1],"tree_param":{"num_deleted":"0","num_feature":"22","num_nodes":"109","size_leaf_vector":"1"}},{"base_weights":[9.690669E-5,-1.4188217E-1,4.9803548E-2,2.1422017E-1,-2.5784856E-1,1.4915753E-2,2.4260142E-1,5.084701E-1,5.7960004E-2,-2.0109503E-1,-5.43836E-1,1.046848E-1,-3.868883E-2,4.894225E-1,-9.226768E-2,8.586136E-3,8.739563E-1,-2.8494759E-2,1.7679186E-1,2.881979E-2,-2.146759E-1,-9.11491E-3,-6.0400724E-1,1.4400993E-1,-2.9097906E-1,-5.3002357E-2,4.7134665E-1,-6.95593E-2,6.464634E-1,3.609657E-2,-5.1383966E-1,3.119234E-1,-2.5157884E-2,1.0051918E0,-6.59541E-4,5.9253997E-1,9.82037E-3,2.813634E-2,-2.2846805E-1,2.857306E-2,-2.1877285E-2,5.1603625E-3,-3.1988274E-2,5.256105E-1,1.000499E-1,-2.9566914E-2,-6.570832E-2,1.7954412E-1,-8.3283074E-2,-3.50775E-1,1.1053417E0,3.3906394E-1,-4.5599657E-1,7.484312E-1,2.2225007E-1,6.72394E-1,-7.9704516E-2,-2.9917864E-2,5.215549E-3,4.502997E-2,-5.773447E-3,6.794868E-2,1.9935759E-2,4.837925E-2,-4.053912E-3,-1.6724939E-2,1.8907508E-2,-8.775489E-3,-2.4178088E-2,1.5733523E-2,7.023155E-2,-1.4972339E-2,7.4968054E-3,2.2555387E-2,-1.1075265E-2,-2.9512781E-3,3.2840367E-2,-6.4010094E-3,6.1980817E-3,5.408326E-3,-2.5342492E-2,6.606087E-2,5.228462E-3,3.9831124E-2,-1.2854694E-2,5.287568E-3,-2.843009E-2,2.3705292E-2,5.3195972E-2,2.3708675E-2,-2.3848807E-2,-1.7834136E-2,5.0438892E-2,3.4915574E-3,-2.0230561E-2],"categories":[],"categories_nodes":[],"categories_segments":[],"categories_sizes":[],"default_left":[0,0,0,0,0,0,0,0,0,0,0,0,0,0,0,0,0,0,0,0,0,0,0,0,0,0,0,0,0,0,0,0,0,0,0,0,0,0,0,0,0,0,0,0,0,0,0,0,0,0,0,0,0,0,0,0,0,0,0,0,0,0,0,0,0,0,0,0,0,0,0,0,0,0,0,0,0,0,0,0,0,0,0,0,0,0,0,0,0,0,0,0,0,0,0],"id":4,"left_children":[1,3,5,7,9,11,13,15,17,19,21,23,25,27,29,31,33,-1,35,-1,37,39,41,43,45,47,49,51,53,55,57,59,-1,61,-1,63,65,-1,67,-1,-1,-1,-1,69,71,-1,73,75,77,79,81,83,85,87,89,91,93,-1,-1,-1,-1,-1,-1,-1,-1,-1,-1,-1,-1,-1,-1,-1,-1,-1,-1,-1,-1,-1,-1,-1,-1,-1,-1,-1,-1,-1,-1,-1,-1,-1,-1,-1,-1,-1,-1],"loss_changes":[6.6184745E0,1.0097948E1,4.6686583E0,2.7424982E0,2.875514E0,2.8395777E0,8.837014E0,3.78938E0,3.1227996E0,1.7607732E0,9.553995E-1,3.4740539E0,2.7237678E0,5.434368E0,2.5065508E0,1.6762112E0,1.4097643E0,0E0,2.4114616E0,0E0,1.7701545E0,1.2539595E0,7.445011E-1,3.324407E0,1.332841E0,2.5533614E0,5.700215E0,2.4234478E0,1.9110985E0,2.7194123E0,6.2651587E-1,1.8053055E0,0E0,1.7029037E0,0E0,2.5949683E0,3.4062672E0,0E0,1.9570131E0,0E0,0E0,0E0,0E0,3.3702416E0,3.6670432E0,0E0,1.1232631E0,4.803689E0,2.9793732E0,4.2707282E-1,1.157126E0,2.2662225E0,5.5422163E-1,2.8100662E0,2.1161597E0,2.324817E0,1.5588138E0,0E0,0E0,0E0,0E0,0E0,0E0,0E0,0E0,0E0,0E0,0E0,0E0,0E0,0E0,0E0,0E0,0E0,0E0,0E0,0E0,0E0,0E0,0E0,0E0,0E0,0E0,0E0,0E0,0E0,0E0,0E0,0E0,0E0,0E0,0E0,0E0,0E0,0E0],"parents":[2147483647,0,0,1,1,2,2,3,3,4,4,5,5,6,6,7,7,8,8,9,9,10,10,11,11,12,12,13,13,14,14,15,15,16,16,18,18,20,20,21,21,22,22,23,23,24,24,25,25,26,26,27,27,28,28,29,29,30,30,31,31,33,33,35,35,36,36,38,38,43,43,44,44,46,46,47,47,48,48,49,49,50,50,51,51,52,52,53,53,54,54,55,55,56,56],"right_children":[2,4,6,8,10,12,14,16,18,20,22,24,26,28,30,32,34,-1,36,-1,38,40,42,44,46,48,50,52,54,56,58,60,-1,62,-1,64,66,-1,68,-1,-1,-1,-1,70,72,-1,74,76,78,80,82,84,86,88,90,92,94,-1,-1,-1,-1,-1,-1,-1,-1,-1,-1,-1,-1,-1,-1,-1,-1,-1,-1,-1,-1,-1,-1,-1,-1,-1,-1,-1,-1,-1,-1,-1,-1,-1,-1,-1,-1,-1,-1],"split_conditions":[6E0,6E0,6.108E-1,8.333E-1,1.1E1,1.1667E0,1.625E0,3E0,1.4286E0,3E0,7.143E-1,2E1,2.1E1,-3.9657356E1,1E0,1E0,2E0,-2.8494759E-2,-5E0,2.881979E-2,5.182E-1,7E0,-9.5E-1,6.25E-1,1.1E0,2.075E-1,6E0,7E0,6.2656982E1,6.355E-1,1.7143E0,7E0,-2.5157884E-2,1.1111E0,-6.59541E-4,0E0,1E0,2.813634E-2,1.8E1,2.857306E-2,-2.1877285E-2,5.1603625E-3,-3.1988274E-2,1.3E1,5E0,-2.9566914E-2,3E0,1.1E1,2E0,3.936E-1,1.5714E0,1E0,-3.9E1,1.2E1,1.1E1,-3E0,1.4E1,-2.9917864E-2,5.215549E-3,4.502997E-2,-5.773447E-3,6.794868E-2,1.9935759E-2,4.837925E-2,-4.053912E-3,-1.6724939E-2,1.8907508E-2,-8.775489E-3,-2.4178088E-2,1.5733523E-2,7.023155E-2,-1.4972339E-2,7.4968054E-3,2.2555387E-2,-1.1075265E-2,-2.9512781E-3,3.2840367E-2,-6.4010094E-3,6.1980817E-3,5.408326E-3,-2.5342492E-2,6.606087E-2,5.228462E-3,3.9831124E-2,-1.2854694E-2,5.287568E-3,-2.843009E-2,2.3705292E-2,5.3195972E-2,2.3708675E-2,-2.3848807E-2,-1.7834136E-2,5.0438892E-2,3.4915574E-3,-2.0230561E-2],"split_indices":[10,11,6,4,12,3,2,10,2,13,3,11,13,0,9,7,7,0,15,0,17,15,1,2,2,6,11,13,0,6,4,12,0,5,0,1,9,0,11,0,0,0,0,13,13,0,15,11,8,6,2,8,15,11,10,15,11,0,0,0,0,0,0,0,0,0,0,0,0,0,0,0,0,0,0,0,0,0,0,0,0,0,0,0,0,0,0,0,0,0,0,0,0,0,0],"split_type":[0,0,0,0,0,0,0,0,0,0,0,0,0,0,0,0,0,0,0,0,0,0,0,0,0,0,0,0,0,0,0,0,0,0,0,0,0,0,0,0,0,0,0,0,0,0,0,0,0,0,0,0,0,0,0,0,0,0,0,0,0,0,0,0,0,0,0,0,0,0,0,0,0,0,0,0,0,0,0,0,0,0,0,0,0,0,0,0,0,0,0,0,0,0,0],"sum_hessian":[9.3581793E2,2.421891E2,6.936288E2,5.9287003E1,1.8290208E2,5.882578E2,1.05370995E2,1.9781988E1,3.9505016E1,1.5403699E2,2.8865107E1,2.1958177E2,3.6867606E2,6.0394585E1,4.497641E1,8.787125E0,1.0994864E1,5.6829576E0,3.3822056E1,1.9329998E0,1.5210399E2,3.0360723E0,2.5829035E1,2.0030904E2,1.927274E1,3.5948364E2,9.19239E0,1.3368154E1,4.7026432E1,3.5179115E1,9.797295E0,5.762098E0,3.0250266E0,9.462079E0,1.5327847E0,8.961E0,2.4861057E1,1.9576778E0,1.501463E2,1.1473819E0,1.8886902E0,1.1523321E0,2.4676702E1,1.9559944E1,1.8074908E2,7.563338E0,1.1709402E1,4.0848743E1,3.1863492E2,4.1968822E0,4.9955087E0,6.5571437E0,6.8110094E0,3.7297085E1,9.729348E0,4.6764975E0,3.0502619E1,8.647036E0,1.150259E0,1.9580075E0,3.8040903E0,5.1923876E0,4.269692E0,5.475854E0,3.4851465E0,1.2896811E1,1.1964246E1,1.2573197E2,2.4414333E1,1.6869678E1,2.6902664E0,1.95097E1,1.612394E2,2.273192E0,9.436211E0,2.7819117E1,1.3029624E1,2.6237857E2,5.625635E1,1.1429551E0,3.0539272E0,3.8457482E0,1.1497602E0,3.5195694E0,3.0375743E0,1.1474837E0,5.663526E0,2.1288736E1,1.6008348E1,7.3890243E0,2.3403234E0,1.1371982E0,3.5392992E0,2.1426376E1,9.0762415E0],"tree_param":{"num_deleted":"0","num_feature":"22","num_nodes":"95","size_leaf_vector":"1"}},{"base_weights":[-1.0162678E-4,-3.7894243E-1,2.3535007E-1,-6.262159E-1,-3.0464286E-1,4.77445E-1,-2.0246197E-2,-6.419174E-1,1.4344928E-2,2.0921335E-2,-3.7161627E-1,6.0560033E-2,5.5196184E-1,-2.5507215E-1,2.5462985E-1,-6.703942E-1,-1.0059288E-1,-4.112521E-1,1.1012359E-1,-4.2546088E-1,-1.9947404E-1,-2.58256E-1,2.7935353E-1,6.4275813E-1,3.0025566E-1,-1.8239804E-1,-6.3269424E-1,1.8145986E-1,6.2567425E-1,-6.9101655E-1,-2.9272315E-1,-4.399518E-1,2.1997515E-2,2.2251038E-2,-6.516589E-1,-5.726231E-1,2.0127633E-1,-3.0210894E-1,-5.2138567E-1,-2.446195E-1,4.0431136E-1,3.5841572E-1,-3.593955E-1,-9.3134515E-2,4.6833944E-1,3.937931E-1,7.3289126E-1,-2.8959742E-1,3.580508E-1,8.858302E-2,-2.4891631E-1,-6.5529114E-1,-5.1646437E-3,3.1756902E-1,-1.24495946E-1,7.652713E-1,2.7966258E-1,-3.4963448E-2,-5.22197E-3,-3.2788634E-2,1.2760838E-2,-2.8470559E-2,-5.309384E-3,-5.241197E-3,-3.7310783E-2,-5.349313E-3,-3.4483768E-2,1.3638816E-2,-3.217676E-2,-2.665825E-2,-9.982854E-3,2.549808E-3,-2.7381837E-2,-1.380381E-2,3.501109E-2,4.194976E-2,-1.1918195E-2,3.4193214E-2,-5.668779E-3,-2.8322032E-2,1.4092569E-2,1.6113197E-2,-2.8103186E-2,4.7207918E-2,1.4606021E-2,4.0554088E-2,1.2721968E-2,-2.838865E-2,3.755563E-2,1.2445009E-2,-2.7775634E-2,2.1351224E-2,-8.887405E-3,1.3868213E-2,-3.0721623E-2,-1.6778322E-2,2.7759958E-3,-3.5073277E-2,-1.3960536E-2,2.085879E-2,-4.357699E-3,-3.464461E-2,-2.5913245E-3,4.370546E-2,1.0917992E-2,-1.690728E-2,2.7434278E-2],"categories":[],"categories_nodes":[],"categories_segments":[],"categories_sizes":[],"default_left":[0,0,0,0,0,0,0,0,0,0,0,0,0,0,0,0,0,0,0,0,0,0,0,0,0,0,0,0,0,0,0,0,0,0,0,0,0,0,0,0,0,0,0,0,0,0,0,0,0,0,0,0,0,0,0,0,0,0,0,0,0,0,0,0,0,0,0,0,0,0,0,0,0,0,0,0,0,0,0,0,0,0,0,0,0,0,0,0,0,0,0,0,0,0,0,0,0,0,0,0,0,0,0,0,0,0,0],"id":5,"left_children":[1,3,5,7,9,11,13,15,-1,17,19,21,23,25,27,29,31,33,35,37,39,41,43,45,47,49,51,53,55,57,59,61,-1,-1,63,65,67,69,71,73,75,77,79,81,83,85,87,89,91,93,95,97,-1,99,101,103,105,-1,-1,-1,-1,-1,-1,-1,-1,-1,-1,-1,-1,-1,-1,-1,-1,-1,-1,-1,-1,-1,-1,-1,-1,-1,-1,-1,-1,-1,-1,-1,-1,-1,-1,-1,-1,-1,-1,-1,-1,-1,-1,-1,-1,-1,-1,-1,-1,-1,-1],"loss_changes":[1.06995605E2,8.256134E0,4.578476E1,1.6936111E0,7.7587547E0,1.1769798E1,2.335412E1,1.532814E0,0E0,2.419936E0,2.6483955E0,4.1695347E0,7.1708755E0,5.2381525E0,4.4129934E0,5.6446075E-1,1.3610724E0,2.5029292E0,3.3419638E0,2.4899025E0,2.0653894E0,1.6522133E0,2.5295887E0,5.0054092E0,3.0796118E0,2.996169E0,3.04101E-1,5.897624E0,1.0927715E0,3.752823E-1,1.5264764E0,1.300838E-1,0E0,0E0,3.7676048E-1,2.7323508E-1,2.983174E0,2.2668104E0,1.8983994E0,2.2068653E0,1.7073803E0,6.828335E-1,3.0118933E0,2.659015E0,1.7025075E0,3.5658188E0,4.5040207E0,1.3329215E0,3.030591E0,4.5841923E0,3.520256E0,3.1849194E-1,0E0,3.9726171E0,1.7827785E0,9.2231464E-1,1.7400786E0,0E0,0E0,0E0,0E0,0E0,0E0,0E0,0E0,0E0,0E0,0E0,0E0,0E0,0E0,0E0,0E0,0E0,0E0,0E0,0E0,0E0,0E0,0E0,0E0,0E0,0E0,0E0,0E0,0E0,0E0,0E0,0E0,0E0,0E0,0E0,0E0,0E0,0E0,0E0,0E0,0E0,0E0,0E0,0E0,0E0,0E0,0E0,0E0,0E0,0E0],"parents":[2147483647,0,0,1,1,2,2,3,3,4,4,5,5,6,6,7,7,9,9,10,10,11,11,12,12,13,13,14,14,15,15,16,16,17,17,18,18,19,19,20,20,21,21,22,22,23,23,24,24,25,25,26,26,27,27,28,28,29,29,30,30,31,31,34,34,35,35,36,36,37,37,38,38,39,39,40,40,41,41,42,42,43,43,44,44,45,45,46,46,47,47,48,48,49,49,50,50,51,51,53,53,54,54,55,55,56,56],"right_children":[2,4,6,8,10,12,14,16,-1,18,20,22,24,26,28,30,32,34,36,38,40,42,44,46,48,50,52,54,56,58,60,62,-1,-1,64,66,68,70,72,74,76,78,80,82,84,86,88,90,92,94,96,98,-1,100,102,104,106,-1,-1,-1,-1,-1,-1,-1,-1,-1,-1,-1,-1,-1,-1,-1,-1,-1,-1,-1,-1,-1,-1,-1,-1,-1,-1,-1,-1,-1,-1,-1,-1,-1,-1,-1,-1,-1,-1,-1,-1,-1,-1,-1,-1,-1,-1,-1,-1,-1,-1],"split_conditions":[-3E0,3E0,8E0,9.043E-1,1E1,6E0,1.5E1,2E0,1.4344928E-2,8E-1,-2.930891E1,1.0046473E0,6E0,1.7E1,2E1,2.4444E0,1E0,1.1E0,1E0,1.6E1,1E0,7E-1,8E-1,1E1,1.1E0,1.1E0,5.816E-1,1.5E1,1.7E0,2.2E1,1.1E0,1.1111E0,2.1997515E-2,2.2251038E-2,-2.6E1,7.5E-1,2.25E0,1.2222E0,8.25E-2,2E0,1E0,2.1E0,1.2222E0,3E0,7.247E-1,2E0,5.182E-1,7E0,2E0,1.0240113E0,1.7E0,3E0,-5.1646437E-3,8.0468315E1,-2.805186E1,1E0,1.7143E0,-3.4963448E-2,-5.22197E-3,-3.2788634E-2,1.2760838E-2,-2.8470559E-2,-5.309384E-3,-5.241197E-3,-3.7310783E-2,-5.349313E-3,-3.4483768E-2,1.3638816E-2,-3.217676E-2,-2.665825E-2,-9.982854E-3,2.549808E-3,-2.7381837E-2,-1.380381E-2,3.501109E-2,4.194976E-2,-1.1918195E-2,3.4193214E-2,-5.668779E-3,-2.8322032E-2,1.4092569E-2,1.6113197E-2,-2.8103186E-2,4.7207918E-2,1.4606021E-2,4.0554088E-2,1.2721968E-2,-2.838865E-2,3.755563E-2,1.2445009E-2,-2.7775634E-2,2.1351224E-2,-8.887405E-3,1.3868213E-2,-3.0721623E-2,-1.6778322E-2,2.7759958E-3,-3.5073277E-2,-1.3960536E-2,2.085879E-2,-4.357699E-3,-3.464461E-2,-2.5913245E-3,4.370546E-2,1.0917992E-2,-1.690728E-2,2.7434278E-2],"split_indices":[15,11,10,6,10,11,11,9,0,5,0,14,10,10,11,4,8,4,4,10,1,5,4,11,2,4,17,10,4,12,2,4,0,0,15,4,4,4,6,7,9,3,4,10,6,10,17,12,7,14,2,15,0,0,0,9,4,0,0,0,0,0,0,0,0,0,0,0,0,0,0,0,0,0,0,0,0,0,0,0,0,0,0,0,0,0,0,0,0,0,0,0,0,0,0,0,0,0,0,0,0,0,0,0,0,0,0],"split_type":[0,0,0,0,0,0,0,0,0,0,0,0,0,0,0,0,0,0,0,0,0,0,0,0,0,0,0,0,0,0,0,0,0,0,0,0,0,0,0,0,0,0,0,0,0,0,0,0,0,0,0,0,0,0,0,0,0,0,0,0,0,0,0,0,0,0,0,0,0,0,0,0,0,0,0,0,0,0,0,0,0,0,0,0,0,0,0,0,0,0,0,0,0,0,0,0,0,0,0,0,0,0,0,0,0,0,0],"sum_hessian":[1.1975198E3,4.5876285E2,7.3875696E2,1.0428103E2,3.5448184E2,3.789532E2,3.5980374E2,1.0281015E2,1.4708773E0,6.05978E1,2.9388403E2,5.773984E1,3.2121335E2,1.9407661E2,1.6572713E2,9.7445526E1,5.3646274E0,9.749995E0,5.0847805E1,2.2274103E2,7.1143E1,2.3425253E1,3.4314587E1,2.3491899E2,8.629435E1,1.6399792E2,3.00787E1,1.396727E2,2.6054428E1,9.161339E1,5.8321366E0,3.4099295E0,1.954698E0,1.950753E0,7.7992425E0,5.366907E0,4.54809E1,9.9255516E1,1.2348551E2,6.674712E1,4.395874E0,2.9421983E0,2.0483055E1,1.1720626E1,2.2593964E1,6.3869167E1,1.7104982E2,7.342865E0,7.8951485E1,3.225723E1,1.3174069E2,2.861932E1,1.4593786E0,9.664204E1,4.3030666E1,1.7701239E1,8.3531885E0,9.015293E1,1.4604545E0,3.3895319E0,2.442605E0,1.9482285E0,1.4617012E0,1.4606543E0,6.338588E0,1.4626106E0,3.9042966E0,4.2556293E1,2.9246042E0,2.9199306E1,7.005621E1,5.3737135E0,1.181118E2,6.528151E1,1.4656167E0,2.4400403E0,1.9558337E0,1.4751279E0,1.4670703E0,1.557188E1,4.911175E0,6.3809023E0,5.339723E0,4.928466E0,1.7665497E1,1.4782704E1,4.9086464E1,1.9464991E0,1.6910332E2,2.4484875E0,4.8943777E0,7.0127014E1,8.824472E0,2.5906109E1,6.35112E0,1.02472275E2,2.9268412E1,2.4719154E1,3.900166E0,7.753023E1,1.911181E1,3.9103518E0,3.912031E1,1.4264313E1,3.4369266E0,2.4560227E0,5.8971663E0],"tree_param":{"num_deleted":"0","num_feature":"22","num_nodes":"107","size_leaf_vector":"1"}},{"base_weights":[1.1444412E-4,4.72248E-1,-2.0162989E-1,8.554518E-1,4.0865016E-1,-3.5872677E-1,6.7799695E-2,9.112172E-2,9.1873693E-1,4.58835E-1,3.2165542E-2,-1.9140612E-1,-5.1910317E-1,2.7119613E-1,-2.2410803E-1,3.0376896E-2,-2.3262508E-2,1.1024833E0,6.367764E-1,3.3439884E-1,6.803941E-1,-2.1883018E-1,5.200883E-1,3.3628282E-1,-2.5325903E-1,-5.955906E-1,-3.9754823E-1,8.095541E-1,1.8492892E-1,-2.4961518E-1,3.6336638E-2,6.577645E-1,6.071025E-2,1.0254984E0,2.9476184E-1,4.981743E-1,2.123923E-1,7.354257E-1,1.22555494E-1,-3.204996E-2,2.3134787E-2,1.0960249E-1,4.4985678E-2,-2.2777094E-1,9.260195E-1,-3.378246E-1,-7.557229E-2,-2.1170712E-1,-6.231287E-1,-2.4971841E-1,-5.98121E-1,1.7810147E-1,9.952921E-1,-1.3855553E-2,2.970106E-1,2.9851375E-2,-2.6885977E-1,-2.1385109E-2,4.979332E-2,1.7981435E-4,6.105585E-2,2.7877916E-2,-1.5416995E-2,2.7085459E-2,-1.5301833E-2,1.6571557E-2,-3.4827683E-3,3.802466E-2,-2.0891516E-2,-1.9212825E-2,2.982759E-2,-5.7910327E-3,4.2420767E-2,3.1897847E-2,-2.6400698E-2,-2.5412394E-2,8.768904E-3,5.190734E-2,7.699968E-5,-2.283401E-2,-9.002807E-3,2.725037E-2,-7.073001E-3,-1.7397832E-2,2.3906434E-2,-3.2390084E-2,-1.5608789E-2,-1.6570078E-2,3.92163E-2,-3.2117113E-2,-1.9791292E-3,4.0035687E-2,-2.594657E-2,4.5634244E-4,5.391289E-2,2.2741362E-2,-5.450606E-3,1.7451068E-2,-2.299293E-2,-2.0018047E-2,-8.537242E-3],"categories":[],"categories_nodes":[],"categories_segments":[],"categories_sizes":[],"default_left":[0,0,0,0,0,0,0,0,0,0,0,0,0,0,0,0,0,0,0,0,0,0,0,0,0,0,0,0,0,0,0,0,0,0,0,0,0,0,0,0,0,0,0,0,0,0,0,0,0,0,0,0,0,0,0,0,0,0,0,0,0,0,0,0,0,0,0,0,0,0,0,0,0,0,0,0,0,0,0,0,0,0,0,0,0,0,0,0,0,0,0,0,0,0,0,0,0,0,0,0,0],"id":6,"left_children":[1,3,5,7,9,11,13,15,17,19,21,23,25,27,29,-1,-1,31,33,35,37,39,41,43,45,47,49,51,53,55,-1,57,-1,59,61,63,65,67,69,-1,71,73,-1,75,77,79,81,83,85,87,89,91,93,95,97,-1,99,-1,-1,-1,-1,-1,-1,-1,-1,-1,-1,-1,-1,-1,-1,-1,-1,-1,-1,-1,-1,-1,-1,-1,-1,-1,-1,-1,-1,-1,-1,-1,-1,-1,-1,-1,-1,-1,-1,-1,-1,-1,-1,-1,-1],"loss_changes":[1.01128395E2,7.396805E0,3.1509317E1,2.0604935E0,5.172062E0,1.2513893E1,1.6377481E1,1.5755302E0,1.4132805E0,6.4488144E0,4.1999044E0,7.645192E0,1.9891891E0,7.3933153E0,2.931745E0,0E0,0E0,3.6159897E-1,2.154151E0,3.0319996E0,2.553814E0,2.3372552E0,1.7136323E0,8.437504E0,3.0983229E0,1.4003334E0,2.6815214E0,2.4188643E0,3.1518636E0,1.9720511E0,0E0,2.9474964E0,0E0,1.6436892E0,1.9521327E0,2.4869595E0,3.1030908E0,2.5782242E0,2.3752887E0,0E0,1.8662833E0,2.602884E0,0E0,1.6092253E0,1.272131E0,2.553667E0,2.8708253E0,1.2205758E0,8.3140945E-1,5.047411E0,9.574537E-1,3.1274784E0,1.3717537E0,2.3639486E0,3.7186184E0,0E0,1.3431582E0,0E0,0E0,0E0,0E0,0E0,0E0,0E0,0E0,0E0,0E0,0E0,0E0,0E0,0E0,0E0,0E0,0E0,0E0,0E0,0E0,0E0,0E0,0E0,0E0,0E0,0E0,0E0,0E0,0E0,0E0,0E0,0E0,0E0,0E0,0E0,0E0,0E0,0E0,0E0,0E0,0E0,0E0,0E0,0E0],"parents":[2147483647,0,0,1,1,2,2,3,3,4,4,5,5,6,6,7,7,8,8,9,9,10,10,11,11,12,12,13,13,14,14,17,17,18,18,19,19,20,20,21,21,22,22,23,23,24,24,25,25,26,26,27,27,28,28,29,29,31,31,33,33,34,34,35,35,36,36,37,37,38,38,40,40,41,41,43,43,44,44,45,45,46,46,47,47,48,48,49,49,50,50,51,51,52,52,53,53,54,54,56,56],"right_children":[2,4,6,8,10,12,14,16,18,20,22,24,26,28,30,-1,-1,32,34,36,38,40,42,44,46,48,50,52,54,56,-1,58,-1,60,62,64,66,68,70,-1,72,74,-1,76,78,80,82,84,86,88,90,92,94,96,98,-1,100,-1,-1,-1,-1,-1,-1,-1,-1,-1,-1,-1,-1,-1,-1,-1,-1,-1,-1,-1,-1,-1,-1,-1,-1,-1,-1,-1,-1,-1,-1,-1,-1,-1,-1,-1,-1,-1,-1,-1,-1,-1,-1,-1,-1],"split_conditions":[-7E0,-4E1,1.1E1,9E0,1.3E1,1.2E1,1.5E1,8.571E-1,3E0,1.6E1,1.9E1,3E0,7E0,5E0,2.7143E0,3.0376896E-2,-2.3262508E-2,-6.4E1,1.625E0,4.655E-1,-9E0,7E0,-4.9195385E1,5E0,7E0,1.1E0,1.7E1,1.4E1,-2E0,-1.35E0,3.6336638E-2,1.4E1,6.071025E-2,1.7E1,-1E0,3E0,1E0,1.6E1,1.4286E0,-3.204996E-2,1.3E0,-2E1,4.4985678E-2,1E0,1.5556E0,1.375E0,8.571E-1,1E0,1.6667E0,1.0906379E0,4.5E1,4.83E-1,-1.9680846E2,-4.46691E1,2.1111E0,2.9851375E-2,7E0,-2.1385109E-2,4.979332E-2,1.7981435E-4,6.105585E-2,2.7877916E-2,-1.5416995E-2,2.7085459E-2,-1.5301833E-2,1.6571557E-2,-3.4827683E-3,3.802466E-2,-2.0891516E-2,-1.9212825E-2,2.982759E-2,-5.7910327E-3,4.2420767E-2,3.1897847E-2,-2.6400698E-2,-2.5412394E-2,8.768904E-3,5.190734E-2,7.699968E-5,-2.283401E-2,-9.002807E-3,2.725037E-2,-7.073001E-3,-1.7397832E-2,2.3906434E-2,-3.2390084E-2,-1.5608789E-2,-1.6570078E-2,3.92163E-2,-3.2117113E-2,-1.9791292E-3,4.0035687E-2,-2.594657E-2,4.5634244E-4,5.391289E-2,2.2741362E-2,-5.450606E-3,1.7451068E-2,-2.299293E-2,-2.0018047E-2,-8.537242E-3],"split_indices":[15,15,10,10,11,11,11,5,11,10,10,11,10,11,4,0,0,15,3,6,15,12,0,10,10,2,11,10,15,1,0,10,0,10,1,8,9,13,3,0,2,15,0,8,5,5,5,8,3,14,15,6,0,0,5,0,12,0,0,0,0,0,0,0,0,0,0,0,0,0,0,0,0,0,0,0,0,0,0,0,0,0,0,0,0,0,0,0,0,0,0,0,0,0,0,0,0,0,0,0,0],"split_type":[0,0,0,0,0,0,0,0,0,0,0,0,0,0,0,0,0,0,0,0,0,0,0,0,0,0,0,0,0,0,0,0,0,0,0,0,0,0,0,0,0,0,0,0,0,0,0,0,0,0,0,0,0,0,0,0,0,0,0,0,0,0,0,0,0,0,0,0,0,0,0,0,0,0,0,0,0,0,0,0,0,0,0,0,0,0,0,0,0,0,0,0,0,0,0,0,0,0,0,0,0],"sum_hessian":[1.0597128E3,3.168535E2,7.428593E2,4.33287E1,2.7352478E2,4.6904236E2,2.7381696E2,3.4997747E0,3.9828926E1,2.411598E2,3.2364983E1,2.306249E2,2.3841745E2,1.6141595E2,1.1240099E2,1.7673669E0,1.7324078E0,2.2352392E1,1.7476534E1,1.5603423E2,8.512557E1,2.173542E1,1.0629562E1,2.3730955E1,2.0689394E2,1.4394286E2,9.44746E1,2.113526E1,1.402807E2,1.10182724E2,2.2182703E0,5.8707714E0,1.648162E1,7.2443953E0,1.0232138E1,6.529812E1,9.073611E1,7.719211E1,7.933467E0,7.318066E0,1.4417355E1,5.7263823E0,4.90318E0,1.2443317E1,1.1287638E1,1.3956854E2,6.73254E1,1.0216193E1,1.3372665E2,5.568076E1,3.8793842E1,5.2490335E0,1.5886227E1,5.0893677E1,8.9387024E1,1.7815717E0,1.0840115E2,1.3313859E0,4.5393853E0,1.3275778E0,5.9168177E0,7.1793237E0,3.052814E0,6.2254467E1,3.0436528E0,6.3683334E1,2.7052774E1,7.588326E1,1.308846E0,3.925511E0,4.007956E0,1.3075453E1,1.3419018E0,3.131206E0,2.5951762E0,7.1843557E0,5.258961E0,9.957027E0,1.3306096E0,7.8520294E1,6.104824E1,5.763999E0,6.1561405E1,8.945051E0,1.2711426E0,1.22892334E2,1.0834327E1,5.2234097E1,3.446663E0,3.580871E1,2.9851332E0,2.6939576E0,2.555076E0,1.318925E0,1.4567301E1,7.9511943E0,4.2942482E1,8.414367E1,5.24335E0,4.5003506E1,6.3397648E1],"tree_param":{"num_deleted":"0","num_feature":"22","num_nodes":"101","size_leaf_vector":"1"}},{"base_weights":[3.713204E-4,-1.363842E-1,4.7847077E-2,2.0593026E-1,-2.497602E-1,1.5477365E-2,2.4435274E-1,2.8999934E-1,-2.8289387E-1,-1.9356117E-1,-5.356733E-1,-2.592653E-1,3.2882124E-2,4.348024E-1,-2.5209364E-1,7.1926343E-1,1.4012551E-1,-2.8637214E-2,3.228678E-1,-1.4252265E-1,-4.2254978E-1,-4.119573E-3,-5.9646124E-1,-3.0274263E-1,2.7621493E-2,8.987179E-3,2.224549E-1,6.214779E-1,-5.7858124E-2,-3.8328385E-1,3.3886755E-1,8.815844E-2,9.650389E-1,-4.7060487E-1,2.956614E-1,-1.7878095E-2,3.8412012E-2,-2.6674864E-1,-3.38923E-2,-4.8810938E-1,2.9613039E-2,2.8183466E-2,-2.1571688E-2,5.0564236E-3,-3.1628136E-2,4.0078636E-2,-4.13721E-1,6.72363E-2,-1.246835E-1,7.6409274E-1,1.2415628E-1,1.0500101E0,3.9911914E-1,3.8149652E-1,-2.7574062E-1,-4.816229E-1,9.8866224E-2,7.084799E-1,-2.0049078E-2,2.8479228E-2,-2.1761602E-2,1.0054461E-2,5.721433E-2,-2.8796589E-2,5.7234224E-3,2.1695003E-2,-1.9605767E-2,-6.762221E-3,-2.3272423E-2,4.1727214E-3,-1.6499994E-2,-1.2118423E-2,-3.1231968E-2,5.7872385E-2,-1.645491E-2,-2.5081402E-2,2.1587547E-3,2.9561545E-3,5.7158895E-2,6.0505755E-3,-9.957805E-3,5.636705E-2,-2.2130629E-2,1.3873077E-2,-1.1353286E-2,5.968986E-2,1.8682212E-2,2.9591316E-2,-6.588235E-3,3.843704E-2,-2.236408E-2,1.7543478E-2,-3.0186592E-2,-2.621865E-2,5.5941474E-3,5.164934E-2,-2.4143752E-2,-8.840514E-4,5.7715606E-2],"categories":[],"categories_nodes":[],"categories_segments":[],"categories_sizes":[],"default_left":[0,0,0,0,0,0,0,0,0,0,0,0,0,0,0,0,0,0,0,0,0,0,0,0,0,0,0,0,0,0,0,0,0,0,0,0,0,0,0,0,0,0,0,0,0,0,0,0,0,0,0,0,0,0,0,0,0,0,0,0,0,0,0,0,0,0,0,0,0,0,0,0,0,0,0,0,0,0,0,0,0,0,0,0,0,0,0,0,0,0,0,0,0,0,0,0,0,0,0],"id":7,"left_children":[1,3,5,7,9,11,13,15,17,19,21,23,25,27,29,31,33,-1,35,37,39,41,43,45,-1,47,49,51,53,55,57,59,61,63,65,-1,-1,67,69,71,-1,-1,-1,-1,-1,73,75,77,79,81,83,85,87,89,91,93,95,97,-1,-1,-1,-1,-1,-1,-1,-1,-1,-1,-1,-1,-1,-1,-1,-1,-1,-1,-1,-1,-1,-1,-1,-1,-1,-1,-1,-1,-1,-1,-1,-1,-1,-1,-1,-1,-1,-1,-1,-1,-1],"loss_changes":[6.0856085E0,9.425831E0,4.4218884E0,2.5742228E0,2.8190908E0,2.8701367E0,9.406956E0,3.2600327E0,1.8363333E0,1.7347612E0,9.4477177E-1,1.4293835E0,2.551331E0,6.6058702E0,2.292719E0,1.974299E0,3.9351623E0,0E0,1.3909353E0,1.7061512E0,2.1176043E0,1.2174089E0,7.2630215E-1,1.3326659E0,0E0,3.91407E0,3.2622414E0,4.525608E0,2.0719333E0,1.1523018E0,1.8151071E0,1.4628757E0,1.0646324E0,5.8956444E-1,3.2568078E0,0E0,0E0,1.4825969E0,2.4234462E0,7.331548E-1,0E0,0E0,0E0,0E0,0E0,4.2466474E0,1.074801E0,2.9878702E0,2.8162107E0,4.659387E0,3.0008497E0,1.2183571E0,3.738233E0,2.6644042E0,3.1538098E0,5.5398846E-1,3.0945075E0,1.3461401E0,0E0,0E0,0E0,0E0,0E0,0E0,0E0,0E0,0E0,0E0,0E0,0E0,0E0,0E0,0E0,0E0,0E0,0E0,0E0,0E0,0E0,0E0,0E0,0E0,0E0,0E0,0E0,0E0,0E0,0E0,0E0,0E0,0E0,0E0,0E0,0E0,0E0,0E0,0E0,0E0,0E0],"parents":[2147483647,0,0,1,1,2,2,3,3,4,4,5,5,6,6,7,7,8,8,9,9,10,10,11,11,12,12,13,13,14,14,15,15,16,16,18,18,19,19,20,20,21,21,22,22,23,23,25,25,26,26,27,27,28,28,29,29,30,30,31,31,32,32,33,33,34,34,37,37,38,38,39,39,45,45,46,46,47,47,48,48,49,49,50,50,51,51,52,52,53,53,54,54,55,55,56,56,57,57],"right_children":[2,4,6,8,10,12,14,16,18,20,22,24,26,28,30,32,34,-1,36,38,40,42,44,46,-1,48,50,52,54,56,58,60,62,64,66,-1,-1,68,70,72,-1,-1,-1,-1,-1,74,76,78,80,82,84,86,88,90,92,94,96,98,-1,-1,-1,-1,-1,-1,-1,-1,-1,-1,-1,-1,-1,-1,-1,-1,-1,-1,-1,-1,-1,-1,-1,-1,-1,-1,-1,-1,-1,-1,-1,-1,-1,-1,-1,-1,-1,-1,-1,-1,-1],"split_conditions":[6E0,6E0,6.238E-1,1.5E1,1.1E1,-4E1,1.8333E0,7.5E-1,8.66E-1,2E0,7.143E-1,1.6E1,2E0,1E0,1.625E0,3E0,1.5714E0,-2.8637214E-2,2E0,1E0,3.1667E0,7E0,-9.5E-1,1.4E1,2.7621493E-2,1.5714E0,-2.7E1,6.657E-1,1.3333E0,1.0596342E2,1.4E1,1E0,-4.1636875E1,1.3473597E-1,1.3333E0,-1.7878095E-2,3.8412012E-2,2.1111E0,8E-1,1.1E0,2.9613039E-2,2.8183466E-2,-2.1571688E-2,5.0564236E-3,-3.1628136E-2,-5.8E1,1.2222E0,9E1,8.571E-1,0E0,8E0,6.2656982E1,1.5556E0,4.5E-1,-7.5E-1,2.3E1,4.5E-1,6.893E-1,-2.0049078E-2,2.8479228E-2,-2.1761602E-2,1.0054461E-2,5.721433E-2,-2.8796589E-2,5.7234224E-3,2.1695003E-2,-1.9605767E-2,-6.762221E-3,-2.3272423E-2,4.1727214E-3,-1.6499994E-2,-1.2118423E-2,-3.1231968E-2,5.7872385E-2,-1.645491E-2,-2.5081402E-2,2.1587547E-3,2.9561545E-3,5.7158895E-2,6.0505755E-3,-9.957805E-3,5.636705E-2,-2.2130629E-2,1.3873077E-2,-1.1353286E-2,5.968986E-2,1.8682212E-2,2.9591316E-2,-6.588235E-3,3.843704E-2,-2.236408E-2,1.7543478E-2,-3.0186592E-2,-2.621865E-2,5.5941474E-3,5.164934E-2,-2.4143752E-2,-8.840514E-4,5.7715606E-2],"split_indices":[10,11,6,15,12,15,2,4,6,5,3,12,8,8,4,10,2,0,3,7,5,15,1,10,0,3,15,6,3,0,11,7,0,0,5,0,0,2,6,3,0,0,0,0,0,15,2,13,2,1,12,0,4,1,1,15,1,6,0,0,0,0,0,0,0,0,0,0,0,0,0,0,0,0,0,0,0,0,0,0,0,0,0,0,0,0,0,0,0,0,0,0,0,0,0,0,0,0,0],"split_type":[0,0,0,0,0,0,0,0,0,0,0,0,0,0,0,0,0,0,0,0,0,0,0,0,0,0,0,0,0,0,0,0,0,0,0,0,0,0,0,0,0,0,0,0,0,0,0,0,0,0,0,0,0,0,0,0,0,0,0,0,0,0,0,0,0,0,0,0,0,0,0,0,0,0,0,0,0,0,0,0,0,0,0,0,0,0,0,0,0,0,0,0,0,0,0,0,0,0,0],"sum_hessian":[9.3531354E2,2.4054443E2,6.947691E2,5.9644455E1,1.8089998E2,5.974345E2,9.73346E1,5.1238995E1,8.4054575E0,1.5258492E2,2.8315065E1,3.4764446E1,5.6267004E2,7.0437225E1,2.6897373E1,1.2276859E1,3.8962135E1,5.722033E0,2.6834245E0,1.2610106E2,2.648385E1,3.0153568E0,2.529971E1,3.359215E1,1.1722928E0,5.006166E2,6.2053455E1,5.0892082E1,1.9545145E1,2.2298622E1,4.598752E0,3.8218265E0,8.455032E0,7.4973164E0,3.146482E1,1.1395731E0,1.5438515E0,5.8148666E1,6.795239E1,2.5364264E1,1.119588E0,1.1578195E0,1.8575374E0,1.1562474E0,2.4143461E1,8.371321E0,2.522083E1,3.4902182E2,1.5159479E2,8.491429E0,5.3562023E1,1.6114296E1,3.4777786E1,6.2305226E0,1.3314622E1,1.8521982E1,3.7766395E0,3.0949717E0,1.5037801E0,1.9447464E0,1.8770801E0,2.0100584E0,6.4449744E0,6.3667727E0,1.1305435E0,2.6506344E1,4.9584775E0,3.600221E1,2.214646E1,4.9180458E1,1.8771938E1,1.0050151E1,1.5314112E1,1.548709E0,6.8226113E0,2.1069202E1,4.1516285E0,3.4745673E2,1.5650694E0,3.5116356E1,1.1647843E2,6.5772758E0,1.9141539E0,3.7432907E1,1.6129118E1,1.2658282E1,3.4560134E0,2.5431524E1,9.346264E0,4.295775E0,1.9347479E0,4.5508003E0,8.763822E0,1.7386143E1,1.1358384E0,1.1516759E0,2.6249635E0,1.5426621E0,1.5523096E0],"tree_param":{"num_deleted":"0","num_feature":"22","num_nodes":"99","size_leaf_vector":"1"}},{"base_weights":[-3.917506E-4,-3.661934E-1,2.253281E-1,-6.0732406E-1,-2.9411507E-1,4.5646796E-1,-1.9841397E-2,-6.227952E-1,1.4047295E-2,1.9403799E-2,-3.5894528E-1,5.7044245E-2,5.275384E-1,-2.4700803E-1,2.446496E-1,-6.507726E-1,-9.523344E-2,3.4761038E-1,-9.55814E-2,-4.251328E-1,-2.2185242E-1,-2.5383204E-1,2.695617E-1,6.137213E-1,2.8800082E-1,-1.7637523E-1,-6.161992E-1,4.7711354E-1,1.3485192E-1,-6.711323E-1,-2.8033173E-1,-4.28723E-1,2.156072E-2,8.248323E-1,-7.185487E-3,-3.659738E-2,1.3948242E-2,-4.505304E-1,5.6873318E-2,5.9572285E-1,-2.8551236E-1,3.4973842E-1,-3.53234E-1,-9.117331E-2,4.5166633E-1,3.7613583E-1,6.9956434E-1,-2.8484967E-1,3.438898E-1,8.656054E-2,-2.4113141E-1,-6.383002E-1,-5.064839E-3,6.416559E-1,1.5172085E-1,-3.994308E-2,3.096963E-1,-3.3965092E-2,-4.8696506E-3,-3.1945195E-2,1.2713857E-2,-2.7872184E-2,-5.0162966E-3,1.3802501E-2,4.6156906E-2,1.2764173E-2,-3.03199E-2,-1.016722E-2,1.0271901E-2,-2.0314796E-2,-3.508989E-2,3.3707276E-2,-1.626704E-2,-5.523975E-3,3.947368E-2,2.8604476E-2,-1.6787872E-2,-5.532155E-3,3.3280816E-2,-2.7764708E-2,1.3412045E-2,1.5501345E-2,-2.7406618E-2,4.5784738E-2,1.3992886E-2,3.9024513E-2,1.2046944E-2,-2.7982015E-2,3.5854053E-2,1.208398E-2,-2.730287E-2,2.0546095E-2,-8.9085875E-3,1.3522743E-2,-3.013576E-2,-1.6293652E-2,2.7761378E-3,-3.418499E-2,-1.3539239E-2,1.5600118E-2,4.2072613E-2,-1.9433826E-2,2.4249751E-2,6.9802217E-3,-1.3153002E-2,1.0250527E-2,3.2948557E-2],"categories":[],"categories_nodes":[],"categories_segments":[],"categories_sizes":[],"default_left":[0,0,0,0,0,0,0,0,0,0,0,0,0,0,0,0,0,0,0,0,0,0,0,0,0,0,0,0,0,0,0,0,0,0,0,0,0,0,0,0,0,0,0,0,0,0,0,0,0,0,0,0,0,0,0,0,0,0,0,0,0,0,0,0,0,0,0,0,0,0,0,0,0,0,0,0,0,0,0,0,0,0,0,0,0,0,0,0,0,0,0,0,0,0,0,0,0,0,0,0,0,0,0,0,0,0,0],"id":8,"left_children":[1,3,5,7,9,11,13,15,-1,17,19,21,23,25,27,29,31,33,35,37,39,41,43,45,47,49,51,53,55,57,59,61,-1,63,65,-1,67,69,71,73,75,77,79,81,83,85,87,89,91,93,95,97,-1,99,101,103,105,-1,-1,-1,-1,-1,-1,-1,-1,-1,-1,-1,-1,-1,-1,-1,-1,-1,-1,-1,-1,-1,-1,-1,-1,-1,-1,-1,-1,-1,-1,-1,-1,-1,-1,-1,-1,-1,-1,-1,-1,-1,-1,-1,-1,-1,-1,-1,-1,-1,-1],"loss_changes":[9.894525E1,7.7689705E0,4.2003967E1,1.6082268E0,7.201832E0,1.0799263E1,2.172511E1,1.4556046E0,0E0,2.3580823E0,2.5677643E0,3.9496243E0,6.5065536E0,4.962571E0,4.200818E0,5.469856E-1,1.2996106E0,2.7486196E0,3.24469E0,2.434372E0,5.2506213E0,1.585549E0,2.3652365E0,4.5745316E0,2.9007435E0,2.824191E0,2.8618145E-1,2.7517157E0,3.5236542E0,3.6353302E-1,1.4650794E0,1.2958378E-1,0E0,1.18285656E-1,1.7719707E0,0E0,1.7299538E0,1.7936096E0,2.752451E0,1.0964072E0,4.1236043E0,6.478156E-1,2.8387978E0,2.4983077E0,1.6314464E0,3.3718328E0,4.218918E0,1.2774482E0,2.880312E0,4.3802752E0,3.3457637E0,3.04945E-1,0E0,2.044796E0,3.6430135E0,2.3738015E0,1.969223E0,0E0,0E0,0E0,0E0,0E0,0E0,0E0,0E0,0E0,0E0,0E0,0E0,0E0,0E0,0E0,0E0,0E0,0E0,0E0,0E0,0E0,0E0,0E0,0E0,0E0,0E0,0E0,0E0,0E0,0E0,0E0,0E0,0E0,0E0,0E0,0E0,0E0,0E0,0E0,0E0,0E0,0E0,0E0,0E0,0E0,0E0,0E0,0E0,0E0,0E0],"parents":[2147483647,0,0,1,1,2,2,3,3,4,4,5,5,6,6,7,7,9,9,10,10,11,11,12,12,13,13,14,14,15,15,16,16,17,17,18,18,19,19,20,20,21,21,22,22,23,23,24,24,25,25,26,26,27,27,28,28,29,29,30,30,31,31,33,33,34,34,36,36,37,37,38,38,39,39,40,40,41,41,42,42,43,43,44,44,45,45,46,46,47,47,48,48,49,49,50,50,51,51,53,53,54,54,55,55,56,56],"right_children":[2,4,6,8,10,12,14,16,-1,18,20,22,24,26,28,30,32,34,36,38,40,42,44,46,48,50,52,54,56,58,60,62,-1,64,66,-1,68,70,72,74,76,78,80,82,84,86,88,90,92,94,96,98,-1,100,102,104,106,-1,-1,-1,-1,-1,-1,-1,-1,-1,-1,-1,-1,-1,-1,-1,-1,-1,-1,-1,-1,-1,-1,-1,-1,-1,-1,-1,-1,-1,-1,-1,-1,-1,-1,-1,-1,-1,-1,-1,-1,-1,-1,-1,-1,-1,-1,-1,-1,-1,-1],"split_conditions":[-3E0,3E0,8E0,9.043E-1,1E1,6E0,1.5E1,2E0,1.4047295E-2,4.825E-1,1.1E1,1.0046473E0,6E0,1.7E1,1.1E1,2.4444E0,2.125E0,7E0,-2E1,-7.053858E0,1.2E1,7E-1,8E-1,1E1,1.1E0,1.1E0,5.816E-1,1E0,1.8E1,2.2E1,1.1E0,5.995E-1,2.156072E-2,1.785E-1,1E0,-3.659738E-2,-4.6666667E-1,-7E0,1.4286E0,1E0,8.25E-2,-9.4279E1,1.2222E0,3E0,7.247E-1,2E0,5.182E-1,7E0,2E0,1.0240113E0,1.7E0,3E0,-5.064839E-3,7E0,1.3333E0,1.5E1,1E0,-3.3965092E-2,-4.8696506E-3,-3.1945195E-2,1.2713857E-2,-2.7872184E-2,-5.0162966E-3,1.3802501E-2,4.6156906E-2,1.2764173E-2,-3.03199E-2,-1.016722E-2,1.0271901E-2,-2.0314796E-2,-3.508989E-2,3.3707276E-2,-1.626704E-2,-5.523975E-3,3.947368E-2,2.8604476E-2,-1.6787872E-2,-5.532155E-3,3.3280816E-2,-2.7764708E-2,1.3412045E-2,1.5501345E-2,-2.7406618E-2,4.5784738E-2,1.3992886E-2,3.9024513E-2,1.2046944E-2,-2.7982015E-2,3.5854053E-2,1.208398E-2,-2.730287E-2,2.0546095E-2,-8.9085875E-3,1.3522743E-2,-3.013576E-2,-1.6293652E-2,2.7761378E-3,-3.418499E-2,-1.3539239E-2,1.5600118E-2,4.2072613E-2,-1.9433826E-2,2.4249751E-2,6.9802217E-3,-1.3153002E-2,1.0250527E-2,3.2948557E-2],"split_indices":[15,11,10,6,10,11,11,9,0,6,11,14,10,10,10,4,3,13,15,0,10,5,4,11,2,4,17,7,11,12,2,6,0,6,7,0,1,15,4,5,6,0,4,10,6,10,17,12,7,14,2,15,0,13,4,10,8,0,0,0,0,0,0,0,0,0,0,0,0,0,0,0,0,0,0,0,0,0,0,0,0,0,0,0,0,0,0,0,0,0,0,0,0,0,0,0,0,0,0,0,0,0,0,0,0,0,0],"split_type":[0,0,0,0,0,0,0,0,0,0,0,0,0,0,0,0,0,0,0,0,0,0,0,0,0,0,0,0,0,0,0,0,0,0,0,0,0,0,0,0,0,0,0,0,0,0,0,0,0,0,0,0,0,0,0,0,0,0,0,0,0,0,0,0,0,0,0,0,0,0,0,0,0,0,0,0,0,0,0,0,0,0,0,0,0,0,0,0,0,0,0,0,0,0,0,0,0,0,0,0,0,0,0,0,0,0,0],"sum_hessian":[1.1963392E3,4.5627597E2,7.400633E2,1.0329321E2,3.5298276E2,3.8048727E2,3.5957602E2,1.0181869E2,1.4745257E0,6.0603737E1,2.9237903E2,5.7746758E1,3.227405E2,1.9347224E2,1.6610378E2,9.6469246E1,5.349443E0,1.5198628E1,4.540511E1,1.9576424E2,9.6614784E1,2.3368412E1,3.4378345E1,2.361973E2,8.654322E1,1.6364232E2,2.9829935E1,5.2212967E1,1.13890816E2,9.0673996E1,5.795248E0,3.3885345E0,1.9609085E0,5.9161887E0,9.28244E0,5.832969E0,3.957214E1,1.8602748E2,9.736753E0,6.3756275E0,9.023916E1,2.9482374E0,2.0420174E1,1.1700299E1,2.2678047E1,6.411887E1,1.7207841E2,7.3287153E0,7.921451E1,3.2271313E1,1.31371E2,2.8372461E1,1.457473E0,3.4031967E1,1.8181E1,5.733928E1,5.6551537E1,8.9219604E1,1.4543886E0,3.3519478E0,2.4433005E0,1.9332837E0,1.4552509E0,1.4773128E0,4.438876E0,6.8541374E0,2.4283023E0,1.8508148E1,2.1063992E1,1.6040576E2,2.5621727E1,3.431356E0,6.3053975E0,1.4651362E0,4.910491E0,4.419501E0,8.581966E1,1.4640954E0,1.4841421E0,1.5490301E1,4.9298725E0,6.4014807E0,5.2988186E0,4.95787E0,1.7720177E1,1.487047E1,4.9248405E1,1.9363081E0,1.701421E2,2.4549375E0,4.873778E0,7.0389465E1,8.82504E0,2.5954456E1,6.316856E0,1.0210531E2,2.926569E1,2.4487206E1,3.8852563E0,1.3809166E1,2.0222801E1,6.8719816E0,1.1309017E1,3.1979176E1,2.5360102E1,4.473145E1,1.1820087E1],"tree_param":{"num_deleted":"0","num_feature":"22","num_nodes":"107","size_leaf_vector":"1"}},{"base_weights":[6.75719E-5,4.4957054E-1,-1.9541068E-1,1.4359088E-1,5.199896E-1,-3.489373E-1,6.444345E-2,1.09379E-2,6.585281E-1,8.0080026E-1,3.9121863E-1,-1.8516943E-1,-5.075396E-1,2.583957E-1,-2.1761858E-1,-1.7237763E-1,4.036511E-1,4.6123628E-2,1.3611253E-1,9.4663996E-1,5.7249534E-1,1.9533516E-1,5.442159E-1,3.2427248E-1,-2.456402E-1,-5.8374745E-1,-3.873113E-1,7.723073E-1,1.7535484E-1,-2.4279857E-1,3.5266723E-2,2.4057133E-1,-3.2305425E-1,-3.5266784E-1,6.4008194E-1,-3.1323814E-1,4.3149848E-2,9.995031E-1,1.4751142E-1,7.6937467E-1,2.3238534E-1,3.437637E-1,-6.17958E-2,7.296672E-1,3.5975695E-1,-2.2238968E-1,8.833625E-1,-4.671963E-1,-1.7871957E-1,-3.956271E-1,-6.461738E-1,-2.418688E-1,-5.866891E-1,1.7020865E-1,9.471083E-1,-1.8383661E-2,2.841767E-1,2.9112605E-2,-2.6183325E-1,-1.1581647E-2,3.3043783E-2,1.0330405E-2,-2.1436943E-2,-2.5273515E-2,4.590391E-4,4.3617647E-2,-3.3265091E-3,-2.37105E-2,7.5386063E-4,2.740085E-2,5.1587667E-2,-2.1700375E-2,2.9077152E-2,4.5614567E-2,2.804819E-3,5.1802494E-2,-2.8472096E-3,4.024774E-3,3.0827815E-2,8.649758E-3,-2.1283632E-2,4.987358E-2,1.8745169E-2,9.474459E-3,4.1586738E-2,-2.495117E-2,8.43821E-3,4.944367E-2,5.2165947E-6,7.7090347E-3,-2.7663508E-2,-1.1590227E-2,9.716665E-3,1.632156E-2,-2.1849722E-2,3.1902043E-3,-3.2757923E-2,-1.6135631E-2,3.799538E-2,-3.1545643E-2,-1.913297E-3,3.8600214E-2,-2.5722284E-2,1.8994052E-4,5.1291227E-2,2.1634623E-2,-5.5395E-3,1.6716331E-2,-2.27423E-2,-1.9599797E-2,-8.260159E-3],"categories":[],"categories_nodes":[],"categories_segments":[],"categories_sizes":[],"default_left":[0,0,0,0,0,0,0,0,0,0,0,0,0,0,0,0,0,0,0,0,0,0,0,0,0,0,0,0,0,0,0,0,0,0,0,0,0,0,0,0,0,0,0,0,0,0,0,0,0,0,0,0,0,0,0,0,0,0,0,0,0,0,0,0,0,0,0,0,0,0,0,0,0,0,0,0,0,0,0,0,0,0,0,0,0,0,0,0,0,0,0,0,0,0,0,0,0,0,0,0,0,0,0,0,0,0,0,0,0,0,0],"id":9,"left_children":[1,3,5,7,9,11,13,15,17,19,21,23,25,27,29,31,33,-1,35,37,39,41,43,45,47,49,51,53,55,57,-1,59,61,63,65,67,-1,69,71,73,75,77,79,81,83,85,87,89,91,93,95,97,99,101,103,105,107,-1,109,-1,-1,-1,-1,-1,-1,-1,-1,-1,-1,-1,-1,-1,-1,-1,-1,-1,-1,-1,-1,-1,-1,-1,-1,-1,-1,-1,-1,-1,-1,-1,-1,-1,-1,-1,-1,-1,-1,-1,-1,-1,-1,-1,-1,-1,-1,-1,-1,-1,-1,-1,-1],"loss_changes":[9.315432E1,6.8485336E0,2.9498652E1,4.1933317E0,9.117859E0,1.1973618E1,1.5114134E1,3.662944E0,1.6090269E0,2.1564941E0,5.3113384E0,7.1698556E0,1.931179E0,6.844413E0,2.7902317E0,2.2387054E0,3.119721E0,0E0,2.0326288E0,1.8770638E0,2.105958E0,3.1063485E0,3.19034E0,7.791919E0,2.9752817E0,1.4135399E0,2.5930471E0,2.2024546E0,3.0010614E0,1.8869305E0,0E0,2.109556E0,1.5368557E0,2.5340247E-1,2.1399593E0,2.221401E-1,0E0,8.6551666E-2,1.2989902E0,2.107708E0,3.3009934E0,3.6420016E0,2.6735892E0,4.3156223E0,4.067545E0,1.5303218E0,1.1636267E0,2.6118145E0,3.2148747E0,1.2774982E0,7.124901E-1,4.799568E0,9.236746E-1,2.9814079E0,1.2722311E0,2.2173932E0,3.526555E0,0E0,1.3017163E0,0E0,0E0,0E0,0E0,0E0,0E0,0E0,0E0,0E0,0E0,0E0,0E0,0E0,0E0,0E0,0E0,0E0,0E0,0E0,0E0,0E0,0E0,0E0,0E0,0E0,0E0,0E0,0E0,0E0,0E0,0E0,0E0,0E0,0E0,0E0,0E0,0E0,0E0,0E0,0E0,0E0,0E0,0E0,0E0,0E0,0E0,0E0,0E0,0E0,0E0,0E0,0E0],"parents":[2147483647,0,0,1,1,2,2,3,3,4,4,5,5,6,6,7,7,8,8,9,9,10,10,11,11,12,12,13,13,14,14,15,15,16,16,18,18,19,19,20,20,21,21,22,22,23,23,24,24,25,25,26,26,27,27,28,28,29,29,31,31,32,32,33,33,34,34,35,35,37,37,38,38,39,39,40,40,41,41,42,42,43,43,44,44,45,45,46,46,47,47,48,48,49,49,50,50,51,51,52,52,53,53,54,54,55,55,56,56,58,58],"right_children":[2,4,6,8,10,12,14,16,18,20,22,24,26,28,30,32,34,-1,36,38,40,42,44,46,48,50,52,54,56,58,-1,60,62,64,66,68,-1,70,72,74,76,78,80,82,84,86,88,90,92,94,96,98,100,102,104,106,108,-1,110,-1,-1,-1,-1,-1,-1,-1,-1,-1,-1,-1,-1,-1,-1,-1,-1,-1,-1,-1,-1,-1,-1,-1,-1,-1,-1,-1,-1,-1,-1,-1,-1,-1,-1,-1,-1,-1,-1,-1,-1,-1,-1,-1,-1,-1,-1,-1,-1,-1,-1,-1,-1],"split_conditions":[-7E0,1E1,1.1E1,9.8122495E-1,4E0,1.2E1,1.5E1,6.32E-1,6.655E-1,-1E0,1E0,3E0,7E0,5E0,2.7143E0,1.1111E0,2.1E0,4.6123628E-2,1.2222E0,-4.5876102E1,3E0,1.1E1,7E0,5E0,8.571E-1,4E-1,1.7E1,1.4E1,-2E0,-1.35E0,3.5266723E-2,1E0,3.627E-1,6.662E-1,-6.9043785E1,3.9034045E0,4.3149848E-2,-2.725185E2,-3.9657356E1,1.625E0,1E0,1.6E1,2.995E-1,-1.9E1,-6.3425278E1,1E0,1.5556E0,6.071E-1,8.495E-1,2E0,4E-1,1.0906379E0,4.5E1,4.83E-1,-1.9680846E2,-4.46691E1,2.1111E0,2.9112605E-2,7E0,-1.1581647E-2,3.3043783E-2,1.0330405E-2,-2.1436943E-2,-2.5273515E-2,4.590391E-4,4.3617647E-2,-3.3265091E-3,-2.37105E-2,7.5386063E-4,2.740085E-2,5.1587667E-2,-2.1700375E-2,2.9077152E-2,4.5614567E-2,2.804819E-3,5.1802494E-2,-2.8472096E-3,4.024774E-3,3.0827815E-2,8.649758E-3,-2.1283632E-2,4.987358E-2,1.8745169E-2,9.474459E-3,4.1586738E-2,-2.495117E-2,8.43821E-3,4.944367E-2,5.2165947E-6,7.7090347E-3,-2.7663508E-2,-1.1590227E-2,9.716665E-3,1.632156E-2,-2.1849722E-2,3.1902043E-3,-3.2757923E-2,-1.6135631E-2,3.799538E-2,-3.1545643E-2,-1.913297E-3,3.8600214E-2,-2.5722284E-2,1.8994052E-4,5.1291227E-2,2.1634623E-2,-5.5395E-3,1.6716331E-2,-2.27423E-2,-1.9599797E-2,-8.260159E-3],"split_indices":[15,10,10,14,11,11,11,6,6,1,8,11,10,11,4,4,3,0,4,0,11,11,13,10,4,1,11,10,15,1,0,5,6,6,0,0,0,0,0,2,8,10,6,15,0,8,5,6,6,10,4,14,15,6,0,0,5,0,12,0,0,0,0,0,0,0,0,0,0,0,0,0,0,0,0,0,0,0,0,0,0,0,0,0,0,0,0,0,0,0,0,0,0,0,0,0,0,0,0,0,0,0,0,0,0,0,0,0,0,0,0],"split_type":[0,0,0,0,0,0,0,0,0,0,0,0,0,0,0,0,0,0,0,0,0,0,0,0,0,0,0,0,0,0,0,0,0,0,0,0,0,0,0,0,0,0,0,0,0,0,0,0,0,0,0,0,0,0,0,0,0,0,0,0,0,0,0,0,0,0,0,0,0,0,0,0,0,0,0,0,0,0,0,0,0,0,0,0,0,0,0,0,0,0,0,0,0,0,0,0,0,0,0,0,0,0,0,0,0,0,0,0,0,0,0],"sum_hessian":[1.0581616E3,3.2030933E2,7.378523E2,6.0494083E1,2.5981525E2,4.636038E2,2.742485E2,4.8914467E1,1.1579616E1,8.0044205E1,1.7977104E2,2.2915393E2,2.3444986E2,1.6255554E2,1.1169298E2,3.3730423E1,1.5184045E1,7.1841316E0,4.395484E0,4.6923435E1,3.3120766E1,7.983476E1,9.993627E1,2.3851572E1,2.0530235E2,1.4113484E2,9.3315025E1,2.1458134E1,1.410974E2,1.0944406E2,2.2489176E0,8.857816E0,2.4872606E1,3.499109E0,1.1684936E1,3.0679708E0,1.327513E0,4.3776817E1,3.1466172E0,2.0178127E1,1.2942638E1,5.0402855E1,2.943191E1,4.8360195E1,5.157608E1,1.2364323E1,1.148725E1,4.6238354E1,1.59064E2,3.699344E1,1.041414E2,5.523512E1,3.8079903E1,5.272127E0,1.6186007E1,5.10474E1,9.005E1,1.8007835E0,1.0764327E2,4.382758E0,4.4750576E0,3.9784987E0,2.0894108E1,2.1811402E0,1.3179688E0,8.617661E0,3.0672743E0,1.7604532E0,1.3075175E0,4.118112E0,3.9658707E1,1.3448423E0,1.8017747E0,1.6577541E1,3.600585E0,2.7428946E0,1.0199744E1,2.6308233E1,2.4094622E1,1.820788E1,1.1224029E1,2.652519E1,2.1835005E1,3.893251E1,1.264357E1,7.0808196E0,5.283503E0,1.0154638E1,1.3326114E0,5.529439E0,4.0708916E1,1.3958049E2,1.9483505E1,1.6311415E0,3.5362297E1,1.2251747E0,1.0291623E2,5.1737724E1,3.4973974E0,3.5099163E1,2.980739E0,2.7379494E0,2.5341778E0,1.3273802E0,1.4858626E1,8.053281E0,4.2994118E1,8.484036E1,5.209639E0,4.4561436E1,6.3081837E1],"tree_param":{"num_deleted":"0","num_feature":"22","num_nodes":"111","size_leaf_vector":"1"}},{"base_weights":[6.848228E-4,2.6111225E-2,-2.3698248E-1,1.3470446E-1,-1.215373E-2,-1.4153382E-1,-4.3360344E-1,9.1621983E-1,1.0746817E-1,-2.906898E-2,-5.286921E-3,3.785437E-2,-1.7699875E-1,-5.4685974E-1,5.022504E-3,-1.7813321E-2,1.2086629E0,-2.2359622E-1,1.5217367E-1,2.567047E-1,-2.5607988E-2,-2.1321414E-2,-3.569863E-1,-5.858424E-1,5.5407924E-3,4.965138E-1,-2.4725867E-2,7.203518E-2,5.25494E-3,-5.0755817E-1,2.2937492E-1,2.8256077E-1,4.143456E-4,-2.83504E-2,6.734704E-1,-1.9575053E-1,1.438033E-3,4.609152E-1,-2.5036585E-1,1.328511E-2,-4.1116562E-1,-3.1425074E-2,-1.3568036E-1,4.7003638E-2,-1.7423803E-2,-5.460379E-3,-3.0962149E-2,-2.6075697E-2,3.292193E-2,1.2199953E-2,6.855797E-2,-2.4293526E-3,3.943309E-2,-1.770318E-2,9.838617E-3,6.4282574E-2,2.0780468E-2,-1.1929288E-3,-1.73242E-2,2.396128E-3,-5.723813E-3,-2.4166622E-4,3.8849976E-2,-1.5975986E-2,3.0280987E-2,7.4612177E-3,-2.3504142E-2,-1.7207017E-2,6.951656E-3],"categories":[],"categories_nodes":[],"categories_segments":[],"categories_sizes":[],"default_left":[0,0,0,0,0,0,0,0,0,0,0,0,0,0,0,0,0,0,0,0,0,0,0,0,0,0,0,0,0,0,0,0,0,0,0,0,0,0,0,0,0,0,0,0,0,0,0,0,0,0,0,0,0,0,0,0,0,0,0,0,0,0,0,0,0,0,0,0,0],"id":10,"left_children":[1,3,5,7,9,11,13,15,17,-1,19,-1,21,23,25,-1,27,29,31,33,35,37,39,41,-1,43,-1,-1,-1,45,47,49,51,53,55,57,59,61,63,-1,65,-1,67,-1,-1,-1,-1,-1,-1,-1,-1,-1,-1,-1,-1,-1,-1,-1,-1,-1,-1,-1,-1,-1,-1,-1,-1,-1,-1],"loss_changes":[5.6604924E0,3.5176497E0,1.6375604E0,4.596127E0,2.4461408E0,2.1235204E0,1.448329E0,3.145166E0,3.2051294E0,0E0,3.3081453E0,0E0,1.697888E0,6.5810394E-1,1.9550034E0,0E0,1.425765E0,3.447249E0,3.7468905E0,5.3328953E0,2.6527228E0,3.8378253E0,1.0594783E0,3.372264E-1,0E0,1.8300258E0,0E0,0E0,0E0,6.543689E-1,3.7800615E0,3.940999E0,3.4570704E0,2.087657E0,2.3398733E0,2.0403297E0,2.6906574E0,1.6532161E0,1.5843993E0,0E0,9.386163E-1,0E0,2.2994201E-1,0E0,0E0,0E0,0E0,0E0,0E0,0E0,0E0,0E0,0E0,0E0,0E0,0E0,0E0,0E0,0E0,0E0,0E0,0E0,0E0,0E0,0E0,0E0,0E0,0E0,0E0],"parents":[2147483647,0,0,1,1,2,2,3,3,4,4,5,5,6,6,7,7,8,8,10,10,12,12,13,13,14,14,16,16,17,17,18,18,19,19,20,20,21,21,22,22,23,23,25,25,29,29,30,30,31,31,32,32,33,33,34,34,35,35,36,36,37,37,38,38,40,40,42,42],"right_children":[2,4,6,8,10,12,14,16,18,-1,20,-1,22,24,26,-1,28,30,32,34,36,38,40,42,-1,44,-1,-1,-1,46,48,50,52,54,56,58,60,62,64,-1,66,-1,68,-1,-1,-1,-1,-1,-1,-1,-1,-1,-1,-1,-1,-1,-1,-1,-1,-1,-1,-1,-1,-1,-1,-1,-1,-1,-1],"split_conditions":[1.0816692E0,1.1E0,2E0,6E0,3.333E-1,3E0,1.4286E0,-8.513176E1,1E0,-2.906898E-2,2.075E-1,3.785437E-2,1.1E0,9.043E-1,3.7E1,-1.7813321E-2,1E1,1.6E0,1.6E1,1.1E1,3.325E-1,7.423E-1,8E0,6.5E1,5.5407924E-3,1E0,-2.4725867E-2,7.203518E-2,5.25494E-3,1.1E0,2.995E-1,1.0697929E0,2.9E0,1.625E0,7E0,2.815E-1,1.7143E0,7E0,9.256E-1,1.328511E-2,1E0,-3.1425074E-2,2.1111E0,4.7003638E-2,-1.7423803E-2,-5.460379E-3,-3.0962149E-2,-2.6075697E-2,3.292193E-2,1.2199953E-2,6.855797E-2,-2.4293526E-3,3.943309E-2,-1.770318E-2,9.838617E-3,6.4282574E-2,2.0780468E-2,-1.1929288E-3,-1.73242E-2,2.396128E-3,-5.723813E-3,-2.4166622E-4,3.8849976E-2,-1.5975986E-2,3.0280987E-2,7.4612177E-3,-2.3504142E-2,-1.7207017E-2,6.951656E-3],"split_indices":[14,3,5,11,2,13,4,0,5,0,6,0,4,6,15,0,12,4,11,11,6,6,11,15,0,9,0,0,0,4,6,14,5,3,12,6,2,12,6,0,5,0,2,0,0,0,0,0,0,0,0,0,0,0,0,0,0,0,0,0,0,0,0,0,0,0,0,0,0],"split_type":[0,0,0,0,0,0,0,0,0,0,0,0,0,0,0,0,0,0,0,0,0,0,0,0,0,0,0,0,0,0,0,0,0,0,0,0,0,0,0,0,0,0,0,0,0,0,0,0,0,0,0,0,0,0,0,0,0,0,0,0,0,0,0,0,0,0,0,0,0],"sum_hessian":[9.346747E2,8.451482E2,8.95265E1,2.1955273E2,6.2559546E2,6.1426933E1,2.8099564E1,6.2946596E0,2.1325807E2,6.4596057E0,6.1913586E2,1.5596839E0,5.9867252E1,2.2136904E1,5.96266E0,1.1355182E0,5.1591415E0,2.4895332E1,1.8836275E2,4.3728527E1,5.754073E2,3.2701275E1,2.7165977E1,2.1001308E1,1.1355957E0,3.008596E0,2.954064E0,4.010396E0,1.1487457E0,1.5228356E1,9.666975E0,1.0085189E2,8.751086E1,2.6520966E1,1.7207561E1,7.806626E1,4.9734106E2,1.0204369E1,2.2496904E1,1.8619752E0,2.5304003E1,1.8821539E1,2.179769E0,1.8991522E0,1.1094437E0,3.767716E0,1.146064E1,3.436831E0,6.230144E0,9.858387E1,2.2680209E0,8.3272575E1,4.2382784E0,1.0604849E1,1.5916117E1,3.9186249E0,1.3288937E1,3.701441E1,4.1051853E1,3.554024E2,1.4193866E2,4.523591E0,5.6807775E0,2.1395145E1,1.1017599E0,2.261452E0,2.3042551E1,1.0956419E0,1.0841272E0],"tree_param":{"num_deleted":"0","num_feature":"22","num_nodes":"69","size_leaf_vector":"1"}},{"base_weights":[-5.959065E-4,-3.5415176E-1,2.1608666E-1,-5.9047925E-1,-2.8387836E-1,4.370335E-1,-1.9169653E-2,-6.0575455E-1,1.3774303E-2,1.9618163E-2,-3.469447E-1,5.4495025E-2,5.0482154E-1,-2.3882237E-1,2.3520654E-1,-6.332469E-1,-9.174432E-2,3.3994392E-1,-9.289297E-2,-2.505531E-1,-4.3884042E-1,-2.4870569E-1,2.6101086E-1,5.868807E-1,2.763894E-1,-1.7009963E-1,-6.00394E-1,1.6542469E-1,5.881348E-1,-6.5346146E-1,-2.6799938E-1,-4.2208982E-1,2.1348802E-2,5.0256574E-1,-2.8233916E-2,-3.5962608E-2,1.42805455E-2,-6.92147E-1,-2.0380586E-1,-4.8932537E-1,-1.6697171E-1,3.4388667E-1,-3.4671336E-1,-8.773641E-2,4.3599966E-1,3.5914966E-1,6.691086E-1,-2.8061503E-1,3.305257E-1,1.7526567E-2,-2.5752154E-1,-4.7917557E-3,-6.222842E-1,2.9305E-1,-1.2313225E-1,7.227835E-1,2.556807E-1,-3.9205935E-2,-2.914407E-2,-3.1177728E-2,1.2762385E-2,-2.7544487E-2,-4.8127356E-3,4.4849716E-2,1.1587895E-2,-9.849576E-3,9.98655E-3,-3.7575822E-2,-1.4809633E-2,-1.2686164E-3,-1.6945688E-2,-2.5071109E-2,1.5884316E-2,2.3667496E-2,-1.4567256E-2,3.2758188E-2,-5.5153235E-3,-2.7238462E-2,1.2924152E-2,1.8551957E-2,-2.3660934E-2,-5.761494E-3,2.7596066E-2,3.759102E-2,1.13928085E-2,-2.7788613E-2,3.43053E-2,1.1718847E-2,-2.686139E-2,1.9761933E-2,-8.767568E-3,-2.3401616E-2,6.1990134E-3,-1.7837692E-2,2.4410144E-3,-3.3510745E-2,-9.982726E-3,1.9451069E-2,-4.877377E-3,-3.3915713E-2,-2.6271592E-3,3.985787E-2,2.9966205E-3,-1.7196808E-2,2.5895825E-2],"categories":[],"categories_nodes":[],"categories_segments":[],"categories_sizes":[],"default_left":[0,0,0,0,0,0,0,0,0,0,0,0,0,0,0,0,0,0,0,0,0,0,0,0,0,0,0,0,0,0,0,0,0,0,0,0,0,0,0,0,0,0,0,0,0,0,0,0,0,0,0,0,0,0,0,0,0,0,0,0,0,0,0,0,0,0,0,0,0,0,0,0,0,0,0,0,0,0,0,0,0,0,0,0,0,0,0,0,0,0,0,0,0,0,0,0,0,0,0,0,0,0,0,0,0],"id":11,"left_children":[1,3,5,7,9,11,13,15,-1,17,19,21,23,25,27,29,31,33,35,37,39,41,43,45,47,49,51,53,55,57,59,61,-1,63,-1,-1,65,67,69,71,73,75,77,79,81,83,85,87,89,91,93,-1,95,97,99,101,103,-1,-1,-1,-1,-1,-1,-1,-1,-1,-1,-1,-1,-1,-1,-1,-1,-1,-1,-1,-1,-1,-1,-1,-1,-1,-1,-1,-1,-1,-1,-1,-1,-1,-1,-1,-1,-1,-1,-1,-1,-1,-1,-1,-1,-1,-1,-1,-1],"loss_changes":[9.16546E1,7.382332E0,3.856544E1,1.5329361E0,6.7507114E0,9.892998E0,2.0182938E1,1.380394E0,0E0,2.2504148E0,2.4745674E0,3.741015E0,5.9272003E0,4.7133665E0,4.025872E0,5.370445E-1,1.266206E0,2.6696248E0,3.1215496E0,2.8467197E0,1.95018E0,1.5304506E0,2.1992402E0,4.218521E0,2.7386532E0,2.6984892E0,2.7785206E-1,5.235028E0,1.0348654E0,3.793869E-1,1.4156379E0,1.3056886E-1,0E0,1.3169734E0,0E0,0E0,1.6283706E0,9.329033E-2,3.1807723E0,1.3730965E0,2.1052256E0,6.307764E-1,2.6996489E0,2.4151533E0,1.5810013E0,3.1965952E0,3.9994507E0,1.2245812E0,2.7023993E0,2.8047473E0,3.4251933E0,0E0,4.5573807E-1,3.718193E0,1.6885285E0,8.8125324E-1,1.6564314E0,0E0,0E0,0E0,0E0,0E0,0E0,0E0,0E0,0E0,0E0,0E0,0E0,0E0,0E0,0E0,0E0,0E0,0E0,0E0,0E0,0E0,0E0,0E0,0E0,0E0,0E0,0E0,0E0,0E0,0E0,0E0,0E0,0E0,0E0,0E0,0E0,0E0,0E0,0E0,0E0,0E0,0E0,0E0,0E0,0E0,0E0,0E0,0E0],"parents":[2147483647,0,0,1,1,2,2,3,3,4,4,5,5,6,6,7,7,9,9,10,10,11,11,12,12,13,13,14,14,15,15,16,16,17,17,18,18,19,19,20,20,21,21,22,22,23,23,24,24,25,25,26,26,27,27,28,28,29,29,30,30,31,31,33,33,36,36,37,37,38,38,39,39,40,40,41,41,42,42,43,43,44,44,45,45,46,46,47,47,48,48,49,49,50,50,52,52,53,53,54,54,55,55,56,56],"right_children":[2,4,6,8,10,12,14,16,-1,18,20,22,24,26,28,30,32,34,36,38,40,42,44,46,48,50,52,54,56,58,60,62,-1,64,-1,-1,66,68,70,72,74,76,78,80,82,84,86,88,90,92,94,-1,96,98,100,102,104,-1,-1,-1,-1,-1,-1,-1,-1,-1,-1,-1,-1,-1,-1,-1,-1,-1,-1,-1,-1,-1,-1,-1,-1,-1,-1,-1,-1,-1,-1,-1,-1,-1,-1,-1,-1,-1,-1,-1,-1,-1,-1,-1,-1,-1,-1,-1,-1],"split_conditions":[-3E0,3E0,8E0,9.043E-1,1E1,6E0,1.5E1,2E0,1.3774303E-2,4.825E-1,1E0,1.0046473E0,6E0,1.7E1,2E1,2.4444E0,1E0,1.2E1,-2E1,4E0,-3.1267538E1,7E-1,8E-1,1E1,1.1E0,1.1111E0,6E-1,1.5E1,1.7E0,4.158E-1,1.1E0,1.1111E0,2.1348802E-2,6E0,-2.8233916E-2,-3.5962608E-2,-4.6666667E-1,-4.5876102E1,1.6E1,5.892E-1,1.1E0,2.1E0,1.2222E0,4.5E-1,7.143E-1,2E0,5.182E-1,7E0,2E0,6E0,1.7E0,-4.7917557E-3,3E0,8.0468315E1,-2.805186E1,1.3E1,1.7143E0,-3.9205935E-2,-2.914407E-2,-3.1177728E-2,1.2762385E-2,-2.7544487E-2,-4.8127356E-3,4.4849716E-2,1.1587895E-2,-9.849576E-3,9.98655E-3,-3.7575822E-2,-1.4809633E-2,-1.2686164E-3,-1.6945688E-2,-2.5071109E-2,1.5884316E-2,2.3667496E-2,-1.4567256E-2,3.2758188E-2,-5.5153235E-3,-2.7238462E-2,1.2924152E-2,1.8551957E-2,-2.3660934E-2,-5.761494E-3,2.7596066E-2,3.759102E-2,1.13928085E-2,-2.7788613E-2,3.43053E-2,1.1718847E-2,-2.686139E-2,1.9761933E-2,-8.767568E-3,-2.3401616E-2,6.1990134E-3,-1.7837692E-2,2.4410144E-3,-3.3510745E-2,-9.982726E-3,1.9451069E-2,-4.877377E-3,-3.3915713E-2,-2.6271592E-3,3.985787E-2,2.9966205E-3,-1.7196808E-2,2.5895825E-2],"split_indices":[15,11,10,6,10,11,11,9,0,6,8,14,10,10,11,4,8,13,15,11,0,5,4,11,2,4,3,10,4,6,2,4,0,13,0,0,1,0,10,6,5,3,4,1,5,10,17,12,7,11,2,0,15,0,0,13,4,0,0,0,0,0,0,0,0,0,0,0,0,0,0,0,0,0,0,0,0,0,0,0,0,0,0,0,0,0,0,0,0,0,0,0,0,0,0,0,0,0,0,0,0,0,0,0,0],"split_type":[0,0,0,0,0,0,0,0,0,0,0,0,0,0,0,0,0,0,0,0,0,0,0,0,0,0,0,0,0,0,0,0,0,0,0,0,0,0,0,0,0,0,0,0,0,0,0,0,0,0,0,0,0,0,0,0,0,0,0,0,0,0,0,0,0,0,0,0,0,0,0,0,0,0,0,0,0,0,0,0,0,0,0,0,0,0,0,0,0,0,0,0,0,0,0,0,0,0,0,0,0,0,0,0,0],"sum_hessian":[1.1943898E3,4.5361023E2,7.407796E2,1.02271484E2,3.5133875E2,3.815653E2,3.592143E2,1.00794E2,1.4774828E0,6.0565575E1,2.9077316E2,5.7708878E1,3.238564E2,1.9279651E2,1.6641777E2,9.545644E1,5.3375535E0,1.52179E1,4.5347675E1,1.4373386E2,1.4703932E2,2.3298452E1,3.4410427E1,2.3711058E2,8.674583E1,1.632404E2,2.9556116E1,1.4017145E2,2.624633E1,8.970276E1,5.7536836E0,3.3746834E0,1.9628702E0,1.3275789E1,1.9421105E0,5.7911406E0,3.9556534E1,1.2437534E1,1.3129633E2,1.2333637E2,2.3702942E1,2.950403E0,2.034805E1,1.1663685E1,2.2746742E1,6.432626E1,1.7278432E2,7.313569E0,7.943226E1,5.2138813E1,1.11101585E2,1.4525875E0,2.8103529E1,9.717606E1,4.2995384E1,1.7844833E1,8.401497E0,2.791575E1,6.178701E1,3.3116558E0,2.4420276E0,1.9235995E0,1.4510838E0,4.4630766E0,8.812713E0,1.846186E1,2.1094673E1,1.0034913E1,2.4026217E0,5.708863E1,7.420769E1,1.2188799E2,1.4483842E0,3.398792E0,2.030415E1,1.4880817E0,1.4623214E0,1.5406111E1,4.9419384E0,5.342665E0,6.321019E0,3.9534242E0,1.8793318E1,1.4934401E1,4.939186E1,1.9310226E0,1.708533E2,2.461093E0,4.8524756E0,7.0617424E1,8.8148365E0,8.764664E0,4.337415E1,8.379393E1,2.7307652E1,2.4714787E1,3.388742E0,7.801219E1,1.9163872E1,3.8788602E0,3.9116524E1,1.5862404E1,1.9824301E0,2.4615264E0,5.9399705E0],"tree_param":{"num_deleted":"0","num_feature":"22","num_nodes":"105","size_leaf_vector":"1"}},{"base_weights":[9.698174E-5,4.2853025E-1,-1.8931904E-1,1.3569838E-1,4.9548438E-1,-3.3964545E-1,6.2020976E-2,5.9518875E-3,6.360194E-1,5.869497E-1,1.4773965E-1,-1.7918357E-1,-4.9667144E-1,2.4726608E-1,-2.1077947E-1,-1.7225824E-1,3.8431245E-1,4.448989E-2,1.3008778E-1,8.3801925E-1,4.941251E-1,-1.8286131E-1,4.5744625E-1,3.10416E-1,-2.3806709E-1,-5.7203984E-1,-3.7892446E-1,7.374054E-1,1.6744457E-1,-2.3571485E-1,3.4486238E-2,2.3060879E-1,-3.2034314E-1,-3.495756E-1,6.10588E-1,-3.136017E-1,4.2208757E-2,8.946518E-1,3.571005E-2,3.2983378E-1,6.590622E-1,-4.809931E-1,-8.40571E-3,-2.550122E-2,5.54498E-1,-2.2003555E-1,8.438319E-1,-4.5735037E-1,-1.7231315E-1,-3.833792E-1,-6.350863E-1,-2.3533726E-1,-5.7751364E-1,1.61951E-1,9.0270096E-1,-3.211546E-1,2.0840915E-1,2.8337171E-2,-2.5451583E-1,-1.1535964E-2,3.1865027E-2,9.8892795E-3,-2.1230377E-2,-2.5177224E-2,6.610118E-4,4.1601066E-2,-3.4896282E-3,-2.3609972E-2,5.3146726E-4,4.602244E-2,-1.2437323E-3,2.7034333E-2,-2.4521604E-2,7.8040436E-3,3.37948E-2,3.4189504E-2,-2.1130024E-2,1.120029E-2,-3.285084E-2,-1.2528705E-2,1.8071547E-2,3.5565663E-2,-1.1022602E-2,-2.4663996E-2,8.100137E-3,4.73346E-2,-5.577645E-4,7.494499E-3,-2.7150491E-2,-1.1233247E-2,9.622724E-3,1.6390545E-2,-2.1246579E-2,3.4593418E-3,-3.220958E-2,-1.5762527E-2,3.6781352E-2,-3.1089518E-2,-1.851202E-3,3.7248254E-2,-2.5531797E-2,2.1991607E-2,5.559984E-2,-2.8098306E-2,4.311887E-2,1.9602492E-4,1.6506044E-2,-7.3067583E-3,-1.8483082E-2],"categories":[],"categories_nodes":[],"categories_segments":[],"categories_sizes":[],"default_left":[0,0,0,0,0,0,0,0,0,0,0,0,0,0,0,0,0,0,0,0,0,0,0,0,0,0,0,0,0,0,0,0,0,0,0,0,0,0,0,0,0,0,0,0,0,0,0,0,0,0,0,0,0,0,0,0,0,0,0,0,0,0,0,0,0,0,0,0,0,0,0,0,0,0,0,0,0,0,0,0,0,0,0,0,0,0,0,0,0,0,0,0,0,0,0,0,0,0,0,0,0,0,0,0,0,0,0,0,0],"id":12,"left_children":[1,3,5,7,9,11,13,15,17,19,21,23,25,27,29,31,33,-1,35,37,39,41,43,45,47,49,51,53,55,57,-1,59,61,63,65,67,-1,69,71,73,75,77,79,-1,81,83,85,87,89,91,93,95,97,99,101,103,105,-1,107,-1,-1,-1,-1,-1,-1,-1,-1,-1,-1,-1,-1,-1,-1,-1,-1,-1,-1,-1,-1,-1,-1,-1,-1,-1,-1,-1,-1,-1,-1,-1,-1,-1,-1,-1,-1,-1,-1,-1,-1,-1,-1,-1,-1,-1,-1,-1,-1,-1,-1],"loss_changes":[8.586322E1,6.292473E0,2.7741816E1,4.004104E0,8.298447E0,1.148262E1,1.39710245E1,3.4400256E0,1.5154352E0,4.4425964E0,5.841735E0,6.6673117E0,1.8380699E0,6.312374E0,2.6759267E0,2.1443498E0,2.9253454E0,0E0,1.9804245E0,2.4585762E0,3.9713745E0,1.4478607E0,3.0359654E0,7.2558126E0,2.8729658E0,1.412426E0,2.5253592E0,2.0172195E0,2.924232E0,1.7986932E0,0E0,2.0062544E0,1.4775362E0,2.571568E-1,1.993474E0,2.1425879E-1,0E0,1.2364006E0,1.5021006E0,4.671377E0,2.3254013E0,1.4237807E0,1.7589626E0,0E0,3.4534645E0,1.4705462E0,1.124423E0,2.5064163E0,3.0813904E0,1.244338E0,7.0393753E-1,4.56573E0,8.9775085E-1,2.8484075E0,1.201417E0,3.744121E0,3.291965E0,0E0,1.2917795E0,0E0,0E0,0E0,0E0,0E0,0E0,0E0,0E0,0E0,0E0,0E0,0E0,0E0,0E0,0E0,0E0,0E0,0E0,0E0,0E0,0E0,0E0,0E0,0E0,0E0,0E0,0E0,0E0,0E0,0E0,0E0,0E0,0E0,0E0,0E0,0E0,0E0,0E0,0E0,0E0,0E0,0E0,0E0,0E0,0E0,0E0,0E0,0E0,0E0,0E0],"parents":[2147483647,0,0,1,1,2,2,3,3,4,4,5,5,6,6,7,7,8,8,9,9,10,10,11,11,12,12,13,13,14,14,15,15,16,16,18,18,19,19,20,20,21,21,22,22,23,23,24,24,25,25,26,26,27,27,28,28,29,29,31,31,32,32,33,33,34,34,35,35,37,37,38,38,39,39,40,40,41,41,42,42,44,44,45,45,46,46,47,47,48,48,49,49,50,50,51,51,52,52,53,53,54,54,55,55,56,56,58,58],"right_children":[2,4,6,8,10,12,14,16,18,20,22,24,26,28,30,32,34,-1,36,38,40,42,44,46,48,50,52,54,56,58,-1,60,62,64,66,68,-1,70,72,74,76,78,80,-1,82,84,86,88,90,92,94,96,98,100,102,104,106,-1,108,-1,-1,-1,-1,-1,-1,-1,-1,-1,-1,-1,-1,-1,-1,-1,-1,-1,-1,-1,-1,-1,-1,-1,-1,-1,-1,-1,-1,-1,-1,-1,-1,-1,-1,-1,-1,-1,-1,-1,-1,-1,-1,-1,-1,-1,-1,-1,-1,-1,-1],"split_conditions":[-7E0,1E1,1.1E1,9.8122495E-1,1.1E1,1.2E1,1.5E1,6.32E-1,6.655E-1,3E0,1.8E1,3E0,7E0,5E0,2.7143E0,1.1111E0,2.1E0,4.448989E-2,1.2222E0,-1.2E1,1.6E1,9.697603E-1,-1.75E0,5E0,8.571E-1,4E-1,1.7E1,1.4E1,1E0,-1.35E0,3.4486238E-2,1E0,3.627E-1,-1.6E1,-6.9043785E1,3.9034045E0,4.2208757E-2,2E0,-5.4867836E1,-5.924481E1,1.6E1,-1.9E1,1E0,-2.550122E-2,3.655E-1,1E0,7.995E-1,6.071E-1,8.495E-1,2E0,4E-1,1.0906379E0,4.5E1,4.83E-1,1E0,3.584687E1,-2E0,2.8337171E-2,1.8E1,-1.1535964E-2,3.1865027E-2,9.8892795E-3,-2.1230377E-2,-2.5177224E-2,6.610118E-4,4.1601066E-2,-3.4896282E-3,-2.3609972E-2,5.3146726E-4,4.602244E-2,-1.2437323E-3,2.7034333E-2,-2.4521604E-2,7.8040436E-3,3.37948E-2,3.4189504E-2,-2.1130024E-2,1.120029E-2,-3.285084E-2,-1.2528705E-2,1.8071547E-2,3.5565663E-2,-1.1022602E-2,-2.4663996E-2,8.100137E-3,4.73346E-2,-5.577645E-4,7.494499E-3,-2.7150491E-2,-1.1233247E-2,9.622724E-3,1.6390545E-2,-2.1246579E-2,3.4593418E-3,-3.220958E-2,-1.5762527E-2,3.6781352E-2,-3.1089518E-2,-1.851202E-3,3.7248254E-2,-2.5531797E-2,2.1991607E-2,5.559984E-2,-2.8098306E-2,4.311887E-2,1.9602492E-4,1.6506044E-2,-7.3067583E-3,-1.8483082E-2],"split_indices":[15,10,10,14,11,11,11,6,6,11,10,11,10,11,4,4,3,0,4,15,10,14,1,10,4,1,11,10,4,1,0,5,6,15,0,0,0,2,0,0,13,15,8,0,6,8,6,6,6,10,4,14,15,6,5,0,15,0,11,0,0,0,0,0,0,0,0,0,0,0,0,0,0,0,0,0,0,0,0,0,0,0,0,0,0,0,0,0,0,0,0,0,0,0,0,0,0,0,0,0,0,0,0,0,0,0,0,0,0],"split_type":[0,0,0,0,0,0,0,0,0,0,0,0,0,0,0,0,0,0,0,0,0,0,0,0,0,0,0,0,0,0,0,0,0,0,0,0,0,0,0,0,0,0,0,0,0,0,0,0,0,0,0,0,0,0,0,0,0,0,0,0,0,0,0,0,0,0,0,0,0,0,0,0,0,0,0,0,0,0,0,0,0,0,0,0,0,0,0,0,0,0,0,0,0,0,0,0,0,0,0,0,0,0,0,0,0,0,0,0,0],"sum_hessian":[1.056053E3,3.233705E2,7.3268243E2,6.0740685E1,2.6262982E2,4.582512E2,2.7443127E2,4.9036198E1,1.1704488E1,2.0739262E2,5.5237186E1,2.2770493E2,2.3054625E2,1.6350014E2,1.10931145E2,3.370545E1,1.5330747E1,7.2893662E0,4.415122E0,5.3812935E1,1.535797E2,2.6915451E1,2.8321737E1,2.3987125E1,2.037178E2,1.3821701E2,9.232924E1,2.1744026E1,1.417561E2,1.0866053E2,2.2706199E0,8.909569E0,2.4795881E1,3.4844823E0,1.1846265E1,3.0690444E0,1.3460777E0,5.0157387E1,3.6555493E0,7.844329E1,7.5136406E1,9.2872E0,1.762825E1,2.194132E0,2.6127605E1,1.23215475E1,1.1665577E1,4.562088E1,1.5809692E2,3.639358E1,1.0182343E2,5.4853336E1,3.7475906E1,5.293873E0,1.6450153E1,1.0436494E1,1.3131961E2,1.8203523E0,1.0684018E2,4.377113E0,4.532456E0,4.0035896E0,2.0792292E1,2.1739237E0,1.3105586E0,8.769357E0,3.0769079E0,1.7544752E0,1.3145691E0,4.878766E1,1.3697276E0,1.8511872E0,1.804362E0,5.318892E1,2.5254372E1,7.381672E1,1.3196847E0,1.8010713E0,7.486129E0,1.0847681E1,6.7805696E0,2.179865E1,4.328954E0,7.013861E0,5.307687E0,1.0317108E1,1.3484689E0,5.5471635E0,4.007372E1,1.385904E2,1.950653E1,1.6286851E0,3.4764896E1,1.2154096E0,1.0060802E2,5.130602E1,3.5473166E0,3.4499313E1,2.976591E0,2.7781212E0,2.5157518E0,6.0879073E0,1.03622465E1,9.108399E0,1.328094E0,4.9383057E1,8.1936554E1,5.6205776E1,5.06344E1],"tree_param":{"num_deleted":"0","num_feature":"22","num_nodes":"109","size_leaf_vector":"1"}},{"base_weights":[1.1009746E-3,-1.2699983E-1,4.4947E-2,1.9584452E-1,-2.3664671E-1,1.33195305E-2,2.3626532E-1,2.74902E-1,-2.7418733E-1,-1.804169E-1,-5.254327E-1,-2.593443E-1,2.9258855E-2,4.1611093E-1,-2.4385805E-1,6.725917E-1,1.3331772E-1,-2.8228668E-2,3.1894913E-1,-1.3040435E-1,-4.0785804E-1,-1.3242532E-3,-5.8684194E-1,5.5529747E-2,-3.8841283E-1,2.3951616E-2,8.1262916E-1,5.9229964E-1,-5.725092E-2,-3.7391132E-1,3.2831803E-1,7.699898E-2,9.0105164E-1,-4.6816242E-1,2.8470916E-1,-1.7627778E-2,3.7487414E-2,-2.552038E-1,-2.1778429E-2,-4.741965E-1,2.8827546E-2,2.7551556E-2,-2.1286577E-2,4.8080967E-3,-3.1168764E-2,4.2832223E-1,-3.6367774E-1,-4.60968E-1,2.6346678E-2,-2.3998395E-1,3.85569E-2,5.55016E-2,4.2852364E-3,9.939337E-1,3.811136E-1,3.66593E-1,-2.7089244E-1,-4.7209716E-1,9.858024E-2,6.8426824E-1,-1.9871447E-2,2.698887E-2,-2.1676563E-2,9.173534E-3,5.3418245E-2,-2.8674006E-2,5.6265607E-3,2.0745775E-2,-1.9106828E-2,-6.2911212E-3,-2.2665348E-2,4.5939605E-3,-1.569565E-2,-1.1343035E-2,-3.0674476E-2,4.1851614E-2,-8.28258E-3,6.17429E-3,-2.57747E-2,-2.6267026E-2,-5.70146E-3,-1.4568274E-2,2.7028946E-2,7.089839E-4,1.18519375E-2,5.615108E-2,1.8301746E-2,2.810956E-2,-6.4245164E-3,3.7127238E-2,-2.233892E-2,1.6954785E-2,-2.9884478E-2,-4.9905344E-3,-2.7765376E-2,4.9618255E-2,-2.383631E-2,-1.0031125E-3,5.5547237E-2],"categories":[],"categories_nodes":[],"categories_segments":[],"categories_sizes":[],"default_left":[0,0,0,0,0,0,0,0,0,0,0,0,0,0,0,0,0,0,0,0,0,0,0,0,0,0,0,0,0,0,0,0,0,0,0,0,0,0,0,0,0,0,0,0,0,0,0,0,0,0,0,0,0,0,0,0,0,0,0,0,0,0,0,0,0,0,0,0,0,0,0,0,0,0,0,0,0,0,0,0,0,0,0,0,0,0,0,0,0,0,0,0,0,0,0,0,0,0,0],"id":13,"left_children":[1,3,5,7,9,11,13,15,17,19,21,23,25,27,29,31,33,-1,35,37,39,41,43,45,47,49,51,53,55,57,59,61,63,65,67,-1,-1,69,71,73,-1,-1,-1,-1,-1,75,77,79,-1,81,83,-1,-1,85,87,89,91,93,95,97,-1,-1,-1,-1,-1,-1,-1,-1,-1,-1,-1,-1,-1,-1,-1,-1,-1,-1,-1,-1,-1,-1,-1,-1,-1,-1,-1,-1,-1,-1,-1,-1,-1,-1,-1,-1,-1,-1,-1],"loss_changes":[5.257289E0,8.495428E0,4.2162166E0,2.3442917E0,2.8057566E0,2.6128368E0,8.638004E0,2.881461E0,1.7804854E0,1.6648197E0,9.193511E-1,1.37117E0,2.3388543E0,6.0630426E0,2.1744103E0,1.7820497E0,3.7902563E0,0E0,1.3326358E0,1.6927934E0,2.0205998E0,1.1724375E0,6.984291E-1,1.8013234E0,1.8154786E0,2.1851368E0,7.2352004E-1,4.0971527E0,1.9574571E0,1.1104167E0,1.7285714E0,1.3835949E0,9.7347784E-1,5.8154833E-1,2.9983866E0,0E0,0E0,1.4348452E0,2.289106E0,7.4329424E-1,0E0,0E0,0E0,0E0,0E0,1.6031431E0,4.7021866E-1,4.419942E-1,0E0,1.3500936E0,2.5886736E0,0E0,0E0,1.0125256E0,3.4133277E0,2.564628E0,3.037029E0,5.3810024E-1,2.9272606E0,1.2696177E0,0E0,0E0,0E0,0E0,0E0,0E0,0E0,0E0,0E0,0E0,0E0,0E0,0E0,0E0,0E0,0E0,0E0,0E0,0E0,0E0,0E0,0E0,0E0,0E0,0E0,0E0,0E0,0E0,0E0,0E0,0E0,0E0,0E0,0E0,0E0,0E0,0E0,0E0,0E0],"parents":[2147483647,0,0,1,1,2,2,3,3,4,4,5,5,6,6,7,7,8,8,9,9,10,10,11,11,12,12,13,13,14,14,15,15,16,16,18,18,19,19,20,20,21,21,22,22,23,23,24,24,25,25,26,26,27,27,28,28,29,29,30,30,31,31,32,32,33,33,34,34,37,37,38,38,39,39,45,45,46,46,47,47,49,49,50,50,53,53,54,54,55,55,56,56,57,57,58,58,59,59],"right_children":[2,4,6,8,10,12,14,16,18,20,22,24,26,28,30,32,34,-1,36,38,40,42,44,46,48,50,52,54,56,58,60,62,64,66,68,-1,-1,70,72,74,-1,-1,-1,-1,-1,76,78,80,-1,82,84,-1,-1,86,88,90,92,94,96,98,-1,-1,-1,-1,-1,-1,-1,-1,-1,-1,-1,-1,-1,-1,-1,-1,-1,-1,-1,-1,-1,-1,-1,-1,-1,-1,-1,-1,-1,-1,-1,-1,-1,-1,-1,-1,-1,-1,-1],"split_conditions":[6E0,6E0,6.238E-1,1.5E1,1.1E1,6.667E-1,1.8333E0,7.5E-1,8.66E-1,2E0,7.143E-1,1.2222E0,9E1,1E0,1.625E0,3E0,1.5714E0,-2.8228668E-2,7.143E-1,1E0,3.1667E0,1.4E1,-9.5E-1,1.2E1,3.1E0,-4E1,4.717E-1,6.657E-1,1.3333E0,1.0596342E2,1.4E1,1E0,-4.1636875E1,1.3473597E-1,1.3333E0,-1.7627778E-2,3.7487414E-2,2.1111E0,8E-1,1.1E0,2.8827546E-2,2.7551556E-2,-2.1286577E-2,4.8080967E-3,-3.1168764E-2,4E0,3.49E-1,9E0,2.6346678E-2,1.4E1,2E0,5.55016E-2,4.2852364E-3,6.2656982E1,1.5556E0,1.4286E0,-7.5E-1,6.655E-1,4.5E-1,6.893E-1,-1.9871447E-2,2.698887E-2,-2.1676563E-2,9.173534E-3,5.3418245E-2,-2.8674006E-2,5.6265607E-3,2.0745775E-2,-1.9106828E-2,-6.2911212E-3,-2.2665348E-2,4.5939605E-3,-1.569565E-2,-1.1343035E-2,-3.0674476E-2,4.1851614E-2,-8.28258E-3,6.17429E-3,-2.57747E-2,-2.6267026E-2,-5.70146E-3,-1.4568274E-2,2.7028946E-2,7.089839E-4,1.18519375E-2,5.615108E-2,1.8301746E-2,2.810956E-2,-6.4245164E-3,3.7127238E-2,-2.233892E-2,1.6954785E-2,-2.9884478E-2,-4.9905344E-3,-2.7765376E-2,4.9618255E-2,-2.383631E-2,-1.0031125E-3,5.5547237E-2],"split_indices":[10,11,6,15,12,5,2,4,6,5,3,4,13,8,4,10,2,0,5,7,5,11,1,10,4,15,6,6,3,0,11,7,0,0,5,0,0,2,6,3,0,0,0,0,0,11,6,12,0,12,8,0,0,0,4,5,1,6,1,6,0,0,0,0,0,0,0,0,0,0,0,0,0,0,0,0,0,0,0,0,0,0,0,0,0,0,0,0,0,0,0,0,0,0,0,0,0,0,0],"split_type":[0,0,0,0,0,0,0,0,0,0,0,0,0,0,0,0,0,0,0,0,0,0,0,0,0,0,0,0,0,0,0,0,0,0,0,0,0,0,0,0,0,0,0,0,0,0,0,0,0,0,0,0,0,0,0,0,0,0,0,0,0,0,0,0,0,0,0,0,0,0,0,0,0,0,0,0,0,0,0,0,0,0,0,0,0,0,0,0,0,0,0,0,0,0,0,0,0,0,0],"sum_hessian":[9.339923E2,2.3768219E2,6.963101E2,6.0058823E1,1.7762337E2,5.984483E2,9.7861855E1,5.176697E1,8.291854E0,1.500347E2,2.758866E1,3.2208435E1,5.6623987E2,7.129089E1,2.6570967E1,1.2606544E1,3.9160427E1,5.5989113E0,2.6929429E0,1.2427987E2,2.5754831E1,3.000647E0,2.4588013E1,9.529687E0,2.2678747E1,5.6345306E2,2.7867506E0,5.1770336E1,1.9520555E1,2.1932344E1,4.638621E0,3.8657107E0,8.740832E0,7.453837E0,3.1706589E1,1.1234298E0,1.5695131E0,5.7206448E1,6.707342E1,2.4614384E1,1.1404486E0,1.174157E0,1.8264902E0,1.1655474E0,2.3422464E1,5.0325775E0,4.4971094E0,2.1473078E1,1.2056684E0,2.8735508E1,5.347176E2,1.6036376E0,1.183113E0,1.6563465E1,3.520687E1,6.302026E0,1.321853E1,1.8159546E1,3.7727993E0,3.1505525E0,1.4880683E0,1.9976346E0,1.8680762E0,2.0491042E0,6.691728E0,6.320026E0,1.1338111E0,2.6843082E1,4.8635073E0,3.5594666E1,2.1611782E1,4.8780434E1,1.8292984E1,9.815009E0,1.4799375E1,2.7388103E0,2.2937675E0,1.1128125E0,3.3842967E0,1.7678684E1,3.794395E0,2.7548798E1,1.1867104E0,4.7718228E2,5.7535316E1,1.308485E1,3.4786153E0,2.5900465E1,9.306406E0,4.3694715E0,1.9325539E0,4.5981493E0,8.620379E0,3.7192001E0,1.4440346E1,1.1935656E0,2.5792336E0,1.5480726E0,1.6024799E0],"tree_param":{"num_deleted":"0","num_feature":"22","num_nodes":"99","size_leaf_vector":"1"}},{"base_weights":[-9.488174E-4,-3.429302E-1,2.072787E-1,-5.7431895E-1,-2.7456132E-1,4.1935557E-1,-1.9195689E-2,-5.894239E-1,1.352416E-2,1.8706493E-2,-3.3580914E-1,5.1041055E-2,4.8445737E-1,-2.312585E-1,2.2512074E-1,-6.1638206E-1,-9.004214E-2,-3.9492932E-1,1.0347218E-1,-3.9913705E-1,-2.0539795E-1,-2.4383384E-1,2.5102246E-1,5.637769E-1,2.6370078E-1,-1.6435452E-1,-5.857837E-1,1.5724924E-1,5.6808275E-1,-6.3635784E-1,-2.57811E-1,-4.162098E-1,2.0967754E-2,2.2450201E-2,-6.344046E-1,-5.5065334E-1,1.8979889E-1,-4.2374456E-1,6.223975E-2,5.8122885E-1,-2.6741096E-1,3.3746648E-1,-3.4037316E-1,3.1727883E-1,-2.924412E-2,3.4542832E-1,6.4260334E-1,-2.7829042E-1,3.162407E-1,-3.63869E-2,-2.963928E-1,-6.076429E-1,-4.4326596E-3,2.8081256E-1,-1.2278628E-1,8.121241E-1,3.6917695E-1,-3.8298752E-2,-2.833331E-2,-3.0452585E-2,1.2614051E-2,-4.6179052E-3,-2.7251381E-2,-4.844226E-3,-3.6418326E-2,-3.3395797E-2,-4.696127E-3,1.2884884E-2,-3.111112E-2,-1.8919978E-2,-3.4095224E-2,3.302236E-2,-1.5615957E-2,-5.702077E-3,3.8629036E-2,2.8227583E-2,-1.583835E-2,3.2111812E-2,-5.429111E-3,-2.673465E-2,1.2480939E-2,7.4031996E-3,3.5378497E-2,3.6319442E-2,1.09031135E-2,-2.7564256E-2,3.295713E-2,1.1439699E-2,-2.65813E-2,1.8929265E-2,-8.638781E-3,1.6048439E-2,-1.0127178E-2,-2.080372E-2,4.3944754E-3,-3.25661E-2,-1.2918244E-2,1.869586E-2,-4.9448917E-3,-3.3410102E-2,-2.6871227E-3,4.7332145E-2,1.6061509E-2,-1.0148173E-2,2.9541656E-2],"categories":[],"categories_nodes":[],"categories_segments":[],"categories_sizes":[],"default_left":[0,0,0,0,0,0,0,0,0,0,0,0,0,0,0,0,0,0,0,0,0,0,0,0,0,0,0,0,0,0,0,0,0,0,0,0,0,0,0,0,0,0,0,0,0,0,0,0,0,0,0,0,0,0,0,0,0,0,0,0,0,0,0,0,0,0,0,0,0,0,0,0,0,0,0,0,0,0,0,0,0,0,0,0,0,0,0,0,0,0,0,0,0,0,0,0,0,0,0,0,0,0,0,0,0],"id":14,"left_children":[1,3,5,7,9,11,13,15,-1,17,19,21,23,25,27,29,31,33,35,37,39,41,43,45,47,49,51,53,55,57,59,61,-1,-1,63,65,67,69,71,73,75,77,79,81,-1,83,85,87,89,91,93,95,-1,97,99,101,103,-1,-1,-1,-1,-1,-1,-1,-1,-1,-1,-1,-1,-1,-1,-1,-1,-1,-1,-1,-1,-1,-1,-1,-1,-1,-1,-1,-1,-1,-1,-1,-1,-1,-1,-1,-1,-1,-1,-1,-1,-1,-1,-1,-1,-1,-1,-1,-1],"loss_changes":[8.502267E1,6.9906387E0,3.565178E1,1.4628639E0,6.305834E0,9.165596E0,1.869509E1,1.2996902E0,0E0,2.198534E0,2.3144913E0,3.522078E0,5.552574E0,4.4844656E0,3.8144512E0,5.188179E-1,1.2257538E0,2.4420323E0,3.033236E0,2.2319393E0,4.8828483E0,1.4743162E0,2.1497335E0,3.8855896E0,2.5922956E0,2.7578077E0,2.7506542E-1,4.92667E0,1.0264854E0,3.7556076E-1,1.3562071E0,1.3151324E-1,0E0,0E0,3.7029767E-1,2.7484298E-1,2.7275352E0,1.9024429E0,2.6056504E0,1.0721748E0,3.8955555E0,6.070169E-1,2.5722961E0,2.108216E0,0E0,3.018055E0,3.802826E0,1.1883396E0,2.5239134E0,5.0734625E0,3.7391071E0,2.714615E-1,0E0,3.5158033E0,1.6203098E0,4.5108366E-1,2.2615223E0,0E0,0E0,0E0,0E0,0E0,0E0,0E0,0E0,0E0,0E0,0E0,0E0,0E0,0E0,0E0,0E0,0E0,0E0,0E0,0E0,0E0,0E0,0E0,0E0,0E0,0E0,0E0,0E0,0E0,0E0,0E0,0E0,0E0,0E0,0E0,0E0,0E0,0E0,0E0,0E0,0E0,0E0,0E0,0E0,0E0,0E0,0E0,0E0],"parents":[2147483647,0,0,1,1,2,2,3,3,4,4,5,5,6,6,7,7,9,9,10,10,11,11,12,12,13,13,14,14,15,15,16,16,17,17,18,18,19,19,20,20,21,21,22,22,23,23,24,24,25,25,26,26,27,27,28,28,29,29,30,30,31,31,34,34,35,35,36,36,37,37,38,38,39,39,40,40,41,41,42,42,43,43,45,45,46,46,47,47,48,48,49,49,50,50,51,51,53,53,54,54,55,55,56,56],"right_children":[2,4,6,8,10,12,14,16,-1,18,20,22,24,26,28,30,32,34,36,38,40,42,44,46,48,50,52,54,56,58,60,62,-1,-1,64,66,68,70,72,74,76,78,80,82,-1,84,86,88,90,92,94,96,-1,98,100,102,104,-1,-1,-1,-1,-1,-1,-1,-1,-1,-1,-1,-1,-1,-1,-1,-1,-1,-1,-1,-1,-1,-1,-1,-1,-1,-1,-1,-1,-1,-1,-1,-1,-1,-1,-1,-1,-1,-1,-1,-1,-1,-1,-1,-1,-1,-1,-1,-1],"split_conditions":[-3E0,3E0,8E0,9.043E-1,1E1,6E0,1.5E1,2E0,1.352416E-2,8E-1,1.1E1,1.0046473E0,6E0,1.7E1,2E1,2.4444E0,2.125E0,5.714E-1,1E0,-7.053858E0,1.2E1,7E-1,1.5E0,1E1,1.1E0,2E0,5.816E-1,1.5E1,1.1E0,4.158E-1,1.1E0,-2.1E1,2.0967754E-2,2.2450201E-2,-2.6E1,8E0,2.25E0,-7E0,1.4286E0,1.2222E0,8.25E-2,2.1E0,1.2222E0,1.3333E0,-2.924412E-2,2E0,5.182E-1,7E0,2E0,4.32E-1,1.8333E0,3E0,-4.4326596E-3,8.0468315E1,-2.805186E1,1E0,1.2222E0,-3.8298752E-2,-2.833331E-2,-3.0452585E-2,1.2614051E-2,-4.6179052E-3,-2.7251381E-2,-4.844226E-3,-3.6418326E-2,-3.3395797E-2,-4.696127E-3,1.2884884E-2,-3.111112E-2,-1.8919978E-2,-3.4095224E-2,3.302236E-2,-1.5615957E-2,-5.702077E-3,3.8629036E-2,2.8227583E-2,-1.583835E-2,3.2111812E-2,-5.429111E-3,-2.673465E-2,1.2480939E-2,7.4031996E-3,3.5378497E-2,3.6319442E-2,1.09031135E-2,-2.7564256E-2,3.295713E-2,1.1439699E-2,-2.65813E-2,1.8929265E-2,-8.638781E-3,1.6048439E-2,-1.0127178E-2,-2.080372E-2,4.3944754E-3,-3.25661E-2,-1.2918244E-2,1.869586E-2,-4.9448917E-3,-3.3410102E-2,-2.6871227E-3,4.7332145E-2,1.6061509E-2,-1.0148173E-2,2.9541656E-2],"split_indices":[15,11,10,6,10,11,11,9,0,5,11,14,10,10,11,4,3,5,4,0,10,5,1,11,2,15,17,10,2,6,2,15,0,0,15,12,4,15,4,4,6,3,4,5,0,10,17,12,7,6,5,15,0,0,0,9,2,0,0,0,0,0,0,0,0,0,0,0,0,0,0,0,0,0,0,0,0,0,0,0,0,0,0,0,0,0,0,0,0,0,0,0,0,0,0,0,0,0,0,0,0,0,0,0,0],"split_type":[0,0,0,0,0,0,0,0,0,0,0,0,0,0,0,0,0,0,0,0,0,0,0,0,0,0,0,0,0,0,0,0,0,0,0,0,0,0,0,0,0,0,0,0,0,0,0,0,0,0,0,0,0,0,0,0,0,0,0,0,0,0,0,0,0,0,0,0,0,0,0,0,0,0,0,0,0,0,0,0,0,0,0,0,0,0,0,0,0,0,0,0,0,0,0,0,0,0,0,0,0,0,0,0,0],"sum_hessian":[1.1919739E3,4.5085977E2,7.411141E2,1.0114447E2,3.497153E2,3.822825E2,3.5883157E2,9.966477E1,1.479696E0,6.0538486E1,2.891768E2,5.7689163E1,3.2459335E2,1.9212422E2,1.6670735E2,9.433784E1,5.3269405E0,9.673773E0,5.086471E1,1.9326591E2,9.59109E1,2.3224737E1,3.4464428E1,2.3765007E2,8.6943275E1,1.6285478E2,2.926944E1,1.4038412E2,2.6323235E1,8.862584E1,5.711993E0,3.3590643E0,1.9678762E0,1.9448806E0,7.728892E0,5.3030515E0,4.556166E1,1.8355745E2,9.708464E0,6.3967166E0,8.9514175E1,2.952281E0,2.0272455E1,3.2508167E1,1.9562602E0,6.446494E1,1.7318512E2,7.3036427E0,7.963963E1,8.335E1,7.950479E1,2.7823711E1,1.4457275E0,9.740306E1,4.298106E1,1.0436066E1,1.588717E1,2.7496006E1,6.1129837E1,3.2678225E0,2.4441707E0,1.444505E0,1.9145595E0,1.4522474E0,6.276644E0,3.8517551E0,1.4512966E0,4.2675877E1,2.8857832E0,1.582305E2,2.5326954E1,3.444304E0,6.264159E0,1.4677432E0,4.9289737E0,4.428439E0,8.508574E1,1.4926026E0,1.4596784E0,1.5320291E1,4.952165E0,2.3638718E1,8.869449E0,1.4973883E1,4.9491062E1,1.9246082E0,1.7126051E2,2.4654984E0,4.8381443E0,7.083475E1,8.804889E0,2.6158592E1,5.7191406E1,6.0560867E1,1.8943922E1,2.3962324E1,3.8613863E0,7.823514E1,1.9167925E1,3.8544745E0,3.9126587E1,7.462676E0,2.9733894E0,4.45981E0,1.142736E1],"tree_param":{"num_deleted":"0","num_feature":"22","num_nodes":"105","size_leaf_vector":"1"}},{"base_weights":[1.9926581E-5,4.0892562E-1,-1.8356958E-1,7.398819E-1,3.532151E-1,-3.3074152E-1,5.952469E-2,7.9005845E-2,7.925958E-1,3.9779243E-1,1.3323924E-2,-1.7343894E-1,-4.8629487E-1,2.3633479E-1,-2.0407319E-1,2.8972974E-2,-2.3257328E-2,9.5011E-1,5.495095E-1,2.8750414E-1,5.9173894E-1,-2.2266904E-1,4.620829E-1,3.0010438E-1,-2.309733E-1,-5.612532E-1,-3.7022504E-1,7.0735276E-1,1.5925035E-1,-2.2870739E-1,3.3590876E-2,5.5450004E-1,5.2625455E-2,9.0995955E-1,2.348543E-1,4.3960506E-1,1.7618746E-1,6.131187E-1,-2.2612138E-2,-3.1727254E-2,9.81176E-3,7.3067784E-2,4.1273337E-2,-2.1487395E-1,8.089287E-1,-4.4771186E-1,-1.6650191E-1,-3.7193152E-1,-6.2498003E-1,-4.964688E-1,-1.4808193E-1,1.5631865E-1,8.63852E-1,-3.5564366E-1,1.9640426E-1,2.7617767E-2,-2.4728045E-1,-2.2471894E-2,4.35509E-2,-1.2065896E-3,5.453041E-2,-2.4796294E-2,2.1068316E-2,1.6223636E-2,3.8562093E-2,-1.353996E-4,1.680115E-2,3.168254E-2,-2.1028237E-2,-6.176744E-3,3.9700788E-2,2.8567186E-2,-2.6665991E-2,-2.4284203E-2,7.940264E-3,4.5399897E-2,-8.089885E-4,7.366203E-3,-2.6656065E-2,-1.0898342E-2,9.438739E-3,-2.3138126E-2,4.609064E-5,3.6639099E-3,-3.171027E-2,8.354331E-3,-2.6939819E-2,-1.0560396E-2,3.523174E-2,3.606346E-2,-2.527157E-2,-8.4816245E-4,4.6913967E-2,1.1438261E-2,-2.5562435E-2,7.47191E-3,3.427553E-2,-1.8841272E-2,-7.5920844E-3],"categories":[],"categories_nodes":[],"categories_segments":[],"categories_sizes":[],"default_left":[0,0,0,0,0,0,0,0,0,0,0,0,0,0,0,0,0,0,0,0,0,0,0,0,0,0,0,0,0,0,0,0,0,0,0,0,0,0,0,0,0,0,0,0,0,0,0,0,0,0,0,0,0,0,0,0,0,0,0,0,0,0,0,0,0,0,0,0,0,0,0,0,0,0,0,0,0,0,0,0,0,0,0,0,0,0,0,0,0,0,0,0,0,0,0,0,0,0,0],"id":15,"left_children":[1,3,5,7,9,11,13,15,17,19,21,23,25,27,29,-1,-1,31,33,35,37,39,41,43,45,47,49,51,53,55,-1,57,-1,59,61,63,65,67,-1,-1,69,71,-1,73,75,77,79,81,83,85,87,89,91,93,95,-1,97,-1,-1,-1,-1,-1,-1,-1,-1,-1,-1,-1,-1,-1,-1,-1,-1,-1,-1,-1,-1,-1,-1,-1,-1,-1,-1,-1,-1,-1,-1,-1,-1,-1,-1,-1,-1,-1,-1,-1,-1,-1,-1],"loss_changes":[7.92404E1,5.769062E0,2.6082043E1,1.5472221E0,4.2652626E0,1.1022461E1,1.2891179E1,1.5016131E0,1.1123257E0,5.159054E0,3.6734223E0,6.2605395E0,1.7730446E0,5.892522E0,2.5522485E0,0E0,0E0,4.1010666E-1,1.9588714E0,2.6446257E0,2.2720757E0,2.1865418E0,1.6282027E0,6.738611E0,2.7647066E0,1.4131584E0,2.5142622E0,1.8458424E0,2.8136013E0,1.715939E0,0E0,2.6657937E0,0E0,1.474164E0,1.7866812E0,2.3183002E0,2.703041E0,2.1342392E0,0E0,0E0,1.7230755E0,2.3792553E0,0E0,1.4171128E0,1.061965E0,2.4159298E0,2.933671E0,1.2473764E0,6.943588E-1,1.7306433E0,2.025421E0,2.7204952E0,1.1742115E0,1.0270987E0,2.985273E0,0E0,1.2660899E0,0E0,0E0,0E0,0E0,0E0,0E0,0E0,0E0,0E0,0E0,0E0,0E0,0E0,0E0,0E0,0E0,0E0,0E0,0E0,0E0,0E0,0E0,0E0,0E0,0E0,0E0,0E0,0E0,0E0,0E0,0E0,0E0,0E0,0E0,0E0,0E0,0E0,0E0,0E0,0E0,0E0,0E0],"parents":[2147483647,0,0,1,1,2,2,3,3,4,4,5,5,6,6,7,7,8,8,9,9,10,10,11,11,12,12,13,13,14,14,17,17,18,18,19,19,20,20,21,21,22,22,23,23,24,24,25,25,26,26,27,27,28,28,29,29,31,31,33,33,34,34,35,35,36,36,37,37,40,40,41,41,43,43,44,44,45,45,46,46,47,47,48,48,49,49,50,50,51,51,52,52,53,53,54,54,56,56],"right_children":[2,4,6,8,10,12,14,16,18,20,22,24,26,28,30,-1,-1,32,34,36,38,40,42,44,46,48,50,52,54,56,-1,58,-1,60,62,64,66,68,-1,-1,70,72,-1,74,76,78,80,82,84,86,88,90,92,94,96,-1,98,-1,-1,-1,-1,-1,-1,-1,-1,-1,-1,-1,-1,-1,-1,-1,-1,-1,-1,-1,-1,-1,-1,-1,-1,-1,-1,-1,-1,-1,-1,-1,-1,-1,-1,-1,-1,-1,-1,-1,-1,-1,-1],"split_conditions":[-7E0,-4E1,1.1E1,9E0,1.3E1,1.2E1,1.5E1,8.571E-1,3E0,1.6E1,1.9E1,3E0,7E0,5E0,2.7143E0,2.8972974E-2,-2.3257328E-2,-6.4E1,1.625E0,4.575E-1,6.231E-1,7E0,-4.9195385E1,5E0,8.571E-1,4E-1,1E0,1.4E1,1.289E-1,-1.35E0,3.3590876E-2,1.4E1,5.2625455E-2,1.7E1,-5.2E1,1.3333E0,-7.388552E1,1.6E1,-2.2612138E-2,-3.1727254E-2,1.3E0,-2E1,4.1273337E-2,1E0,1.5556E0,6.071E-1,8.495E-1,1.7143E0,4E-1,1E0,2E0,4.83E-1,-1.9680846E2,9E0,1.9E1,2.7617767E-2,7E0,-2.2471894E-2,4.35509E-2,-1.2065896E-3,5.453041E-2,-2.4796294E-2,2.1068316E-2,1.6223636E-2,3.8562093E-2,-1.353996E-4,1.680115E-2,3.168254E-2,-2.1028237E-2,-6.176744E-3,3.9700788E-2,